-0.00339487
-0.27226973
-0.13886032
0.11040952
-0.05507691
0.09932829
0.09756892
0.01622554
0.04512434
-0.05810633
0.003775
0.171714
0.32761833
-0.35495296
-0.14646897
-0.00652266
-0.01113962
-0.09160639
-0.029326
-0.16433993
0.41511074
0.03705499
0.08708978
0.4203649
0.15905245
0.03597714
-0.0342217
0.14555638
-0.05560595
0.3882471
0.03506763
0.3249595
0.16035186
-0.07932346
0.03247816
-0.03910014
-0.16629298
0.14692758
-0.11874859
0.22334181
0.35371193
0.2435356
0.4127719
0.3139229
0.04842562
0.34021133
-0.13132021
-0.19940725
-0.24126951
-0.07606261
0.05203776
0.00521085
-0.10775229
0.23298322
0.15279411
0.16673961
-0.08004794
0.05071272
0.34853846
0.25953588
0.32740903
-0.00503653
0.14723384
0.14779085
0.3419704
0.13576278
0.19424713
-0.18707277
0.32372716
0.2241572
-0.10055068
0.03399757
0.0629301
0.19900751
0.03805725
0.21811624
0.01769567
0.23594624
0.40016142
0.26798537
0.26751098
0.35132727
0.10632583
0.12188807
0.0934247
-0.12551363
-0.17103718
-0.06891678
0.05807994
0.09448072
0.0586559
0.1798106
0.23319745
-0.10384124
-0.11111752
0.10402552
-0.21847019
0.2605274
0.3245372
0.01596012
0.6663953
0.36830348
0.4501674
0.415823
0.24948642
0.29885793
0.07210569
0.06946193
0.15280443
0.17253718
-0.008114417
-0.35221133
0.119024545
0.27392668
0.021943772
0.27268097
0.015288966
0.18495016
-0.062088702
0.08695311
0.17210577
0.09265665
-0.018745273
-0.013847126
0.06378217
0.10906513
-0.21139596
0.024080385
0.081872515
-0.00596034
-0.056950655
0.028766606
0.046309013
0.19860837
-0.10041242
-0.03472551
-0.1779492
-0.23876627
-0.18542212
-0.16025338
-0.01871824
-0.08296941
-0.20811866
-0.062237732
0.0679671
-0.114985876
0.16538674
0.094363324
-0.56644934
-0.21510558
-0.11471476
-0.010190251
-0.30942407
-0.016378991
0.057527117
0.07856147
-0.12305058
0.050115034
-0.16510507
0.08079139
-0.4880926
-0.24416995
-0.18964003
-0.21045977
-0.22386692
-0.19739124
0.09655028
-0.13466941
0.13321297
0.03415257
-0.014409679
0.013116437
-0.31223434
-0.2304998
-0.13880777
0.10403294
-0.00013928089
-0.10097461
-0.09290901
-0.09358345
-0.070378006
0.08234903
-0.19911568
-0.24802093
-0.22995356
-0.058817375
0.1692884
0.20289357
-0.066809714
0.056506395
0.16153629
0.041758195
0.1868016
-0.085031055
-0.19538236
-0.069925286
-0.18724625
-0.1354386
0.22231662
0.09292007
0.20394263
0.04402297
0.24521309
-0.07114463
-0.011113875
-0.043062024
0.02520568
-0.12819582
-0.098997414
0.004133144
-0.020328866
-0.07305627
0.036902733
0.15995988
-0.047651723
-0.06642921
0.1317451
-0.010939946
-0.09636565
-0.033278704
0.21827619
-0.082420446
0.1798742
0.21275365
0.08035239
-0.122118704
-0.03781692
0.09045377
-0.059043482
0.13781899
0.08959895
-0.22088014
0.043603394
0.052567683
0.0060914075
0.05878083
0.11731907
0.07593074
-0.03162494
-0.16410084
0.04947387
-0.06657593
0.035761017
0.19899674
0.31930572
0.33713064
0.06406548
0.09698414
0.014059369
0.07919371
0.19496892
0.24526379
0.20001754
0.06819689
-0.15324138
-0.34734368
0.04760715
0.005116472
0.109112516
0.10892434
0.06932346
0.033704706
0.036562797
-0.07582163
0.14615908
-0.08053857
-0.0020852974
-0.2503588
0.22058216
0.20820023
-0.027320988
-0.12793739
0.07507905
0.19637641
-0.04624801
-0.02849813
0.17061536
-0.001771469
0.17090844
0.023500348
-0.082177795
-0.026244113
-0.096661575
0.13458692
0.027632268
0.06672759
-0.11382677
-0.02971958
-0.09893589
0.060214426
0.20699932
0.18882851
0.23548564
-0.11771345
0.072601445
0.029553909
-0.057680856
-0.15833661
0.15947406
0.078912534
0.17073971
-0.12210926
0.08724958
0.21933441
-0.07981808
-0.098852076
-0.010975856
-0.19952151
-0.1222107
-0.0072869393
-0.010014927
-0.09538884
-0.0332197
-0.17768121
-0.15328014
0.20693678
0.024474999
0.14315234
0.06931759
0.08373125
0.09661007
0.11014224
-0.032536376
-0.017326387
0.047823932
-0.09245924
0.15211576
-0.0015897402
-0.09321365
0.16008371
-0.1755168
-0.04025523
0.11257562
-0.08046667
-0.15206054
0.04018469
-0.16356346
0.026821947
0.06945156
0.11689969
0.054683667
-0.001793657
0.083632454
-0.05875073
-0.09104367
0.07195473
0.10810402
-0.06985781
0.03465028
0.055793826
0.19905888
0.17538945
-0.106043994
-0.22741257
-0.009261701
-0.08736232
-0.06643123
0.15471196
0.027167942
-0.05637544
0.052937564
0.089726664
0.05838046
-0.04257043
-0.3313014
-0.08633487
0.084716395
0.011436902
0.10872391
-0.07404292
0.14662755
0.22213808
0.04183141
-0.12675445
0.019585237
-0.18030767
-0.030377766
0.032328274
-0.16525018
0.055168714
0.13459684
0.029681358
-0.08699802
0.12173427
-0.13673629
-0.18005756
-0.1126737
-0.1645284
-0.018099846
-0.115140244
-0.07392665
0.124909975
0.0498545
0.17508073
0.14111717
0.0027361591
-0.099071875
0.052540764
-0.022726191
0.22527598
0.119798034
0.18512838
0.1985662
0.2523574
0.01532447
0.07300626
-0.041927077
0.032263536
-0.07442896
0.052003462
-0.079136595
-0.013402275
0.030714333
-0.0024465143
0.056262404
-0.11344036
0.009632098
-0.002424674
0.16151804
-0.11355482
0.10851561
0.071772404
-0.102536246
-0.087508276
0.023412857
0.028344607
-0.018365823
-0.13883759
0.09005356
0.18643111
-0.084528565
-0.0553353
0.068472415
-0.2201415
-0.23028755
-0.22286485
-0.093886115
0.08983359
-0.12329492
0.18529339
0.025151247
-0.045751683
0.084167965
-0.16009915
-0.060666334
-0.044521585
0.025637196
-0.30306482
0.045930613
0.17283803
0.14318639
0.05587488
-0.12321663
-0.013450744
0.105840325
-0.09510258
0.065830186
-0.072164685
-0.03912849
-0.29538792
-0.06699613
-0.08869275
0.0072862515
0.23680751
0.08644526
-0.014801838
0.09569256
0.03592897
0.18869415
-0.120368905
-0.07161191
-0.26215574
-0.042454608
0.06704055
-0.08877979
-0.052828733
0.12497042
0.19097443
-0.049699362
0.23552677
0.22694588
0.18255973
-0.0991453
-0.3021071
0.16607608
-0.023507012
0.09670352
-0.10795883
-0.010143644
-0.078756794
0.16443726
0.038824737
0.1593721
0.013955594
-0.040174652
-0.3266677
-0.061994582
0.046517104
-0.091790356
-0.028355833
-0.0016762884
-0.012214952
0.05824784
0.18330689
0.1589432
-0.053122677
-0.13107127
-0.11594317
-0.004611334
-0.14313576
-0.24435464
0.04827317
-0.036935054
-0.13319455
0.008102026
-0.07527945
-0.086499244
0.036032666
-0.1820905
-0.087655045
-0.020047452
0.0335634
-0.15706605
-0.08449045
0.051858637
-0.08806484
0.028264822
0.030501183
0.107057385
-0.006655759
0.093430355
-0.23021692
-0.017477665
0.043900583
-0.043179914
0.06379965
-0.05739914
-0.028752085
-0.022859568
-0.19564757
-0.24768381
0.11269221
-0.082308166
0.14437695
0.13363819
0.014298133
-0.13574247
0.18693073
0.040269703
0.055013128
-0.05268186
0.068275504
0.108632125
-0.034700166
-0.15089162
0.30074623
0.07375356
0.18814886
0.14012103
0.19586806
0.038746234
0.077919684
0.026222955
0.04505946
0.052627783
0.12812777
0.014453659
0.23281235
-0.051725835
0.06709304
0.17101914
0.014276883
0.21117449
0.19188806
0.114006735
0.16139884
-0.21544361
0.03871554
0.043988418
0.06188211
-0.102051914
0.07145878
0.016802857
-0.07508757
-0.10560793
-0.10916573
0.16289431
0.12073792
-0.081286184
-0.06904165
0.1727982
-0.047634687
0.08985532
-0.14108181
-0.035555065
-0.07894812
0.027148314
-0.13937421
-0.082807034
0.07592527
0.0055510323
0.12597294
-0.15419444
-0.08131859
0.08749111
-0.065567285
0.15034968
0.2039615
-0.049736444
0.04495622
0.1646268
0.12810081
0.0015700967
-0.13603942
0.10080962
0.08866082
-0.19767115
0.046867378
-0.16553774
-0.01508695
0.18212548
0.1645598
-0.12283451
0.11005114
0.1754279
0.19117248
-0.07812728
0.013420851
-0.20798238
-0.04068579
-0.054872166
0.13736743
-0.0017915829
-0.027900903
-0.058760725
-0.019592974
0.1179137
-0.1009957
0.10335615
-0.15199342
-0.22503352
0.10869105
-0.060626045
-0.077074364
0.14349015
0.017686838
-0.13083078
0.042745095
-0.09758074
0.1256321
0.07726222
-0.23110531
-0.09552091
-0.20244187
0.06787243
-0.08388034
0.1203491
0.14683723
-0.15773551
-0.06248041
0.046200402
-0.12579365
-0.07709522
-0.23846856
-0.1478391
-0.015816197
-0.1338186
0.04960763
-0.015197183
0.0608054
-0.031709213
0.07965313
-0.025409257
0.039534267
-0.0035540168
-0.10702537
-0.14564407
0.13759764
-0.068758145
0.13257511
-0.19642173
-0.11990131
-0.109751925
-0.15143037
-0.07230968
0.094587415
0.12050447
0.025938975
0.0154939825
-0.09650443
0.16052851
0.14512716
-0.0646668
-0.18073866
0.14308672
0.0087789465
-0.052394405
-0.033356525
-0.031953584
-0.1533576
-0.034984082
-0.09283565
0.12917724
-0.06135624
-0.18316536
0.06526554
0.043472443
-0.15420693
-0.0924187
-0.19423361
-0.19049056
0.13287796
0.0415164
-0.06026567
0.15862592
-0.06630616
0.11985752
-0.16145505
0.11674502
0.0254519
-0.124928825
0.0896037
0.014147367
-0.022940222
0.11301192
-0.19036862
-0.11014573
0.09754037
0.06991224
0.07508728
-0.1897806
-0.20206615
-0.11825483
0.15436018
-0.19403316
0.12514901
0.029977495
0.10788991
0.02449516
-0.12474758
0.051383574
0.061293658
0.10012291
0.15033115
-0.15802062
-0.062306855
0.14380357
-0.1534026
-0.1205127
0.14773841
0.12195109
-0.10482678
-0.1459841
-0.1729852
-0.1303165
0.10612636
0.06157116
0.12416579
-0.01351001
-0.16417743
-0.15732151
-0.025963467
0.16580182
0.04394519
-0.18422017
0.10555457
-0.14017649
-0.1473101
-0.0066593154
0.016100395
-0.014785103
-0.15382187
-0.087481506
-0.16222914
-0.07022765
-0.055730633
-0.0878505
-0.16584718
0.076567054
0.025565932
-0.15187764
-0.010804384
0.06086532
-0.16838443
-0.09654669
0.08896808
0.06556173
-0.06909324
0.11475353
0.019994263
0.04291059
-0.0065405355
-0.069741614
0.16312292
-0.18292965
-0.07664861
-0.10496575
-0.04400709
0.122474365
0.080148555
-0.18409008
0.09973642
0.16371329
0.00852987
-0.1649734
0.09298209
-0.045604467
-0.11373934
-0.044956032
-0.1545039
-0.108272664
-0.046094194
0.0317018
0.05169163
-0.1628605
0.12268187
0.009108629
0.019777456
0.17231657
-0.13711947
-0.21658888
-0.00979147
-0.13068748
-0.08985143
-0.021595737
-0.028288584
-0.1403387
-0.10320958
-0.0022195019
-0.1357607
0.041664224
0.009126961
0.12276119
-0.07409103
-0.037516132
0.061684657
-0.07318178
0.06178516
0.0042482847
-0.094111025
0.0011218233
-0.010582068
-0.13122538
0.032015573
0.21539725
0.079932585
0.123124816
0.13975781
0.21405417
0.009071898
0.08212917
0.23759319
0.2240706
0.09085733
0.07781404
-0.14710152
0.100684635
0.22155185
-0.04013667
0.22605811
0.15568139
0.2016546
-0.13669811
-0.06360653
0.1775529
-0.021395551
-0.1250801
-0.065448284
0.17752795
0.17555094
-0.070372716
0.08201598
0.18896946
0.04430155
0.12966265
0.094226755
0.20299329
-0.16260219
0.1376428
-0.10256897
0.07389555
-0.0023697836
0.09785419
-0.13852453
0.12482703
-0.14861564
0.14799742
0.15249763
0.1622502
0.07806701
-0.12813121
0.10219923
-0.24306738
-0.11288368
0.0035289675
-0.0103013
-0.12757617
-0.19189654
0.0023063319
0.14473791
0.106691666
0.13994776
0.08288674
0.079470895
-0.00087172067
-0.089056164
-0.03435994
0.0439083
0.020095924
-0.1332717
0.08211982
-0.06747559
-0.07595588
-0.16717234
0.043837372
-0.12978366
-0.1653668
-0.05865143
0.07836861
-0.037300404
0.085011005
0.101034045
0.058007162
0.03694544
0.02631876
-0.1191621
-0.14077605
-0.06098563
0.01102041
-0.109676205
0.09757959
0.10867964
-0.052918598
0.12345548
0.10267049
-0.05331661
0.20726171
-0.051766314
0.110190555
-0.13128027
0.10303238
-0.177814
0.11966094
-0.09898489
-0.09185998
0.20962502
0.23911837
-0.11411134
0.17265543
0.014859042
-0.040121257
0.034197655
-0.12916957
-0.023045551
-0.19213176
0.0005213945
-0.15780784
0.10937086
-0.06818192
0.06474919
0.11654551
0.111277275
0.09543913
-0.020581031
0.032212373
-0.12291956
0.18625005
-0.16897781
0.049140237
0.19558941
-0.156367
-0.08353704
0.13004431
-0.16006514
0.036343068
0.027053332
-0.17508045
-0.025874509
-0.17433968
0.005843257
-0.17400523
-0.10914548
0.12275761
-0.020985207
0.048881035
-0.16548601
-0.10156914
0.07035103
-0.043141432
0.06463693
-0.06860721
-0.18731047
0.08360452
0.0062661306
-0.06263858
0.010370833
-0.107979074
-0.033016734
-0.07463741
0.071614265
-0.08291895
0.07983731
0.028245375
0.15847605
0.0306377
-0.13140261
0.14960867
-0.021550454
0.12064933
-0.18337274
-0.08246727
0.19187233
-0.09415349
-0.05543085
-0.12066405
-0.16509092
-0.16120267
-0.19107895
-0.030525455
0.13739294
-0.04166218
0.09927075
-0.07725615
-0.10495598
0.043191727
-0.1035316
0.19088612
-0.15005454
0.03781636
-0.10625241
-0.1291957
-0.13371986
-0.021266652
0.10094485
0.06605581
0.10478788
0.0020864855
0.12927277
0.007831467
-0.15708199
-0.05038211
0.11350263
-0.005022182
-0.19513056
-0.09750046
-0.20126031
0.15217753
-0.08741497
-0.05959967
-0.038702212
0.04369361
-0.06856404
-0.18553248
-0.03170265
0.11250161
-0.066158384
-0.1251442
0.020525036
-0.1370578
-0.019456783
-0.09743315
-0.05117216
0.028702432
0.031262264
-0.011596875
-0.15146528
-0.007782886
0.011403765
0.0212437
0.16574478
0.101612136
-0.06607404
-0.16478953
0.14118189
0.07872684
-0.1990905
-0.014865156
0.013612092
-0.17619233
-0.016035866
-0.14466092
0.04007983
-0.10534999
-0.11235435
-0.046037495
0.1288984
-0.07997472
0.14334367
0.095613495
-0.065261245
-0.051015526
-0.10770585
0.047340598
-0.0060455613
-0.031080961
0.1777339
0.19120906
0.08127959
0.15673879
-0.16037151
0.15979846
0.06081046
-0.15502506
-0.1481965
-0.12894467
-0.040005967
-0.14323536
0.06258697
-0.034926314
-0.0938579
0.08179053
-0.030735407
0.085047774
0.065454245
0.23885301
-0.087001406
0.1526467
0.13379581
-0.1852169
0.17972071
-0.011197997
-0.10769855
0.11915067
0.19332947
0.14666258
-0.049914423
-0.05770071
0.15707949
-0.1621311
-0.003928512
0.04358955
0.09005656
0.12196974
0.17787847
-0.16076818
0.11544822
-0.06678632
0.19243771
0.07863997
0.103150375
-0.21133845
-0.036821667
-0.08050276
0.0022891571
0.2178563
-0.11044333
-0.1170186
-0.09946137
0.037807617
0.07751783
0.13263953
-0.04220815
-0.12763096
-0.09423723
-0.11365889
0.015594241
0.06438595
-0.16594063
0.05387304
-0.04928753
-0.05191815
-0.14209665
0.23348616
-0.049641654
-0.03425973
-0.014969658
-0.13650538
0.2514885
-0.04559063
-0.023070075
0.06332058
-0.15338217
-0.006967581
0.026054982
-0.09860987
-0.16436358
-0.14045627
-0.060600996
0.16137303
0.0470851
0.058030028
0.044064347
-0.13192488
0.10740032
-0.11716738
-0.01152038
0.098264724
0.10923054
-0.06679331
-0.20091943
-0.050493516
0.11691323
-0.08071498
-0.10579906
-0.043209154
-0.046929725
-0.040483225
0.06904126
-0.13467854
0.08809635
-0.19645683
-0.11252977
-0.057626244
-0.0642826
-0.16612227
0.18614288
0.040510476
0.23235516
0.27742016
-0.016031757
-0.053162295
0.089421555
0.086988315
-0.054967336
0.007004201
0.17329407
-0.07285881
-0.032729376
0.1841437
0.22950432
0.12114396
-0.028613904
0.017002517
0.09957831
-0.111978896
-0.19078067
0.15022704
0.12905014
-0.06858058
0.25682068
0.25443146
0.012155156
0.2470653
-0.10081927
0.028311487
0.0067987335
0.031359192
-0.09318596
-0.0534775
-0.115268044
-0.05210639
0.024597941
0.16291799
0.29912347
0.13224472
0.030371014
0.18724667
0.11091581
0.054796834
-0.086501844
0.21148136
-0.026051134
-0.11611819
-0.08270578
-0.06298695
0.06798038
-0.03306912
0.1642728
0.15897001
0.1934385
0.11684902
-0.03970004
0.14496252
0.15605621
0.08473781
-0.009956938
-0.09715977
0.0058284434
0.0005868389
-0.030577404
0.15776616
-0.113006115
0.08034204
0.10191092
-0.042424783
-0.004854865
0.09814673
-0.194513
0.13460886
-0.1275991
-0.026411919
-0.020099483
0.06607181
-0.012302008
0.25767052
0.2468566
0.0739798
0.15614243
-0.16348149
0.032973457
0.09662519
-0.03289734
0.011475062
0.10996533
-0.09480159
0.042205956
0.008168701
-0.04868815
0.040699158
-0.003556579
0.12781867
0.05645993
-0.086165614
-0.09209171
0.113629796
0.02352009
0.03388076
0.019869285
0.16279869
0.19692235
0.14336799
-0.0075480766
-0.19039069
-0.010218052
-0.07461281
0.008980285
-0.001659707
0.062239014
-0.22711994
-0.042924706
0.1378928
0.028864572
-0.036682982
0.02748999
0.03055551
0.07851399
-0.13769005
-0.17550428
-0.21008308
-0.005339908
-0.0033659718
0.022511777
-0.087803215
-0.06915342
0.09347809
-0.16129036
0.04804928
0.15237795
-0.08357993
0.10595262
0.10210107
0.01722846
-0.07690039
0.05119729
0.25160906
0.14887796
-0.1020176
-0.24679086
-0.06689327
-0.15506555
-0.16434193
-0.1096952
0.010146334
-0.22074427
-0.031694088
0.16908874
0.0056275283
0.011926766
0.046838854
-0.029876266
-0.07136697
0.012669836
-0.18042362
-0.11014136
-0.14132121
0.1360389
-0.16632935
0.04870485
-0.110609226
0.11783567
-0.09428008
-0.042043537
-0.09926685
0.14314625
0.10613474
0.066222735
-0.16333713
0.13712788
-0.10081828
0.17724821
-0.03240797
-0.018996676
0.0026480341
-0.1322518
0.20653495
0.14010406
0.15348929
-0.17125106
-0.14212726
-0.0094025
0.06754701
0.045762744
0.23093899
0.11996998
0.08739163
-0.0022564065
0.36527577
0.3826902
0.23267119
-0.0054547493
0.039949343
0.11805091
0.038267966
0.0069975983
0.084553905
-0.01582543
0.1166166
0.38220423
0.1697023
-0.14974087
0.07152962
0.075037055
-0.15131645
-0.039702453
-0.21995969
-0.13265342
0.08813885
0.07182092
0.10444242
0.271386
-0.07856269
-0.09223207
0.03859129
-0.23005006
0.012942339
-0.052127548
-0.17692782
0.135025
0.14116511
0.115702085
-0.08690238
0.09778668
0.04608359
-0.0995946
-0.12548584
-0.09015125
-0.13979787
0.09011682
-0.1521812
-0.19989535
-0.09287976
0.1044139
0.140013
-0.122961864
-0.11331594
-0.023800649
-0.14886603
0.043978922
-0.033546474
-0.13858292
0.1949024
-0.05481295
-0.07011836
-0.09312949
0.04904055
-0.07036815
0.17581134
0.0514475
0.21286218
0.22575012
0.16886681
0.09307896
0.07281499
-0.17990425
-0.082808584
-0.25493795
-0.21682416
-0.11402766
-0.008541615
-0.09643027
0.22741997
0.083539575
0.057298236
0.011052728
0.12628837
0.16504395
-0.06443842
0.051828835
0.1350453
0.1070025
0.27140698
0.20385866
-0.10436436
-0.15071747
-0.14081442
-0.12970123
0.2034223
0.19581659
-0.14968836
-0.14242086
0.062151484
0.018971657
-0.0083177565
0.12220735
-0.015321992
0.0016243208
-0.10095693
0.1823425
-0.16039638
0.1154845
0.10097107
-0.012863151
-0.103996396
0.2885137
-0.025224458
0.09958758
-0.079775974
-0.09272647
-0.133746
-0.026598286
0.05849272
-0.0868097
-0.05735691
0.124564156
0.20715946
0.01650826
0.15877166
0.06575139
-0.13401583
-0.029922701
-0.04432687
-0.046358496
0.23336351
-0.03904055
-0.09143298
-0.13309745
0.012539115
0.27624732
0.42810062
0.1130822
0.27252954
0.1343895
0.29874498
0.20698826
-0.024281735
-0.06865441
0.19421531
0.03608106
-0.06357195
0.08534439
0.060475986
-0.14624944
-0.01343969
-0.07183283
-0.0863047
-0.02353369
0.12092141
-0.0056734704
0.07706691
0.1241523
-0.0750444
-0.08015332
-0.1281377
0.0012965922
0.15057169
0.005616867
-0.17273536
-0.10293058
-0.06556114
0.18047872
-0.100841075
-0.002548009
0.056439176
-0.045992915
-0.12908158
-0.012560581
-0.028302565
-0.065855406
-0.11591641
-0.054645315
-0.13986054
-0.033211946
0.18307632
-0.06971107
-0.039771896
0.040704068
-0.06459402
0.16274405
0.08335494
0.09321093
-0.24484678
0.110125124
0.07613095
-0.06591264
-0.09067554
0.20968603
-0.022007572
-0.03935585
0.18259591
0.19483088
0.030366356
-0.23923138
-0.0757023
-0.21345991
-0.010801682
-0.1226052
0.15291992
0.24297656
0.17001541
0.078423366
0.33570433
0.09826036
0.030972553
-0.2926918
-0.076835185
-0.20093165
-0.19592792
-0.10633616
-0.05245573
-0.05623272
0.17176777
0.10500181
0.02638265
0.19160044
0.0011009205
-0.35156396
-0.3064664
-0.2779293
-0.11128266
0.19037138
-0.033205457
0.17803022
-0.14394939
-0.085153915
0.21194716
0.10935722
-0.21458144
-0.40008873
-0.22019134
9.80E-05
0.0887072
0.27763775
0.05658307
0.01746554
-0.063110486
0.1651475
0.061539277
-0.075078875
-0.32943577
-0.24703252
0.060679417
-0.019606464
0.18946259
0.26871017
0.13283202
0.33385703
-0.04259551
-0.122060664
-0.27396908
-0.27849814
-0.297946
-0.22105235
0.21508056
0.07462372
0.02392329
0.18930165
0.15982644
0.11185836
0.20102118
0.14713638
-0.24905421
-0.26101536
-0.1749236
-0.091262236
0.0720579
0.22602826
0.19990756
0.29485506
-0.028897403
0.09461513
-0.10120767
-0.14396846
0.057237417
-0.047129437
-0.16228712
0.054276243
-0.095084116
0.049604777
0.026299229
-0.0744201
0.16650814
0.14382984
-0.011705865
0.079561464
-0.20008087
-0.16690701
0.15653446
0.07044682
-0.035848387
0.08756216
0.19807933
-0.1220017
-0.015258775
0.024947684
-0.046014693
-0.33562082
-0.10459852
-0.19561483
-0.18971045
-0.12505823
0.05349236
-0.02962971
0.16309224
-0.09985865
-0.019140746
-0.011155865
-0.18431862
-0.21046989
-0.19508968
0.06898748
-0.092035234
-0.13790935
-0.13604027
-0.111720085
0.15344805
-0.050290212
0.14401114
0.06947823
-0.105128616
0.004270099
0.21513958
-0.11892589
-0.09785533
0.08813721
0.15036063
0.08156937
0.12270313
0.03257229
0.08595555
0.06763258
-0.014774273
0.02063243
0.22817226
0.23239401
0.014838773
0.0007453308
0.15538122
0.16011278
0.013002294
-0.033722706
0.12771006
0.081978716
0.21351328
-0.08785936
0.039335225
-0.03637723
-0.05637608
0.032068443
0.03548339
-0.057430997
0.239376
-0.017844332
-0.087055765
0.09981788
0.18028647
0.050426096
-0.057557594
0.070081174
0.018761648
0.24071713
-0.0027767248
0.13161674
0.113745674
0.18869919
-0.11491267
0.00077954924
0.05992027
0.15248418
-0.0635496
0.12810707
0.14061706
-0.10817591
0.17873833
0.18004678
-0.0297679
-0.16972764
-0.1258344
-0.13350776
-0.04201393
0.011378906
-0.06898257
0.06418585
-0.08826324
0.09778781
0.03940773
0.22218798
0.1678022
-0.18477915
-0.13205299
0.058489755
-0.17589355
0.013891298
-0.08274033
0.15541321
-0.041699648
0.06382771
0.06592337
0.08912982
0.092517525
-0.034080785
0.049061347
-0.06372934
-0.047376037
0.2622877
0.2322618
-0.07727575
-0.0038956306
0.24808563
0.22246425
0.055393778
0.1169426
0.045607597
-0.021539299
0.12695366
0.12279104
0.19089359
-0.034184005
0.18453953
0.10275686
0.22620264
-0.09242559
-0.0052904277
0.06843741
0.002825048
0.035995245
-0.122922346
0.078403674
0.5304076
-0.34504056
-0.5299447
-0.16120347
-0.3718498
-0.2824133
-0.13378607
-0.13522333
0.05916092
0.09657068
-0.06842846
-0.011317541
-0.24750112
-0.18153894
0.027332515
0.059179988
-0.20424215
0.13817137
0.1297731
-0.050298188
-0.05096652
-0.101730384
-0.14629477
0.14538117
-0.09217527
0.12325443
-0.060232744
0.02840026
0.1725847
-0.038079545
0.107408136
0.115712814
0.23762785
0.21950242
0.007649819
0.02208076
0.052543223
0.13365948
0.110854186
0.29904747
0.02291371
0.034767352
0.116055906
0.24135573
0.23910521
-0.021001656
0.11421329
0.06506755
0.068486385
0.20547016
0.09861614
0.115437314
0.23299214
0.17758606
-0.11091678
0.14051673
-0.01490734
-0.047571328
0.0029575499
-0.023161063
-0.05511238
0.12016786
0.22229499
-0.05570791
0.25803953
-0.02560806
0.07432744
0.032405432
-0.15806942
-0.13532463
-0.26196197
0.10049645
0.11899888
-0.091526575
0.18831891
0.07016807
0.04735886
0.008752657
-0.12808135
-0.10410462
-0.2542401
-0.11900297
0.027939128
-0.1376328
0.05467861
0.1531
-0.08155219
-0.08521657
-0.19692421
-0.025491606
-0.058701374
-0.10818392
-0.11231634
-0.20040824
0.034210585
-0.10605026
0.27429676
-0.1135222
-0.1261247
-0.04962303
-0.18500589
-0.1977186
-0.27863535
-0.051375955
0.06331035
0.023900578
0.059789613
0.21243942
-0.058347724
0.09029251
-0.08611035
-0.2454744
0.057294246
0.024195291
-0.0015164652
-0.093555935
0.06471896
-0.109652214
0.036383037
-0.06204933
0.13609935
-0.04784767
-0.12357688
0.06585972
0.15495424
-0.09165084
0.12143195
-0.16604836
0.08432011
0.16071533
0.14502601
0.06479818
0.073528275
0.09419048
0.01439166
0.037640456
0.111051396
0.07247655
0.10963028
0.13751578
0.13296092
0.02631868
-0.051513113
-0.22817564
-0.10723475
0.06658428
0.07933663
0.1891231
0.10962798
0.08377792
0.07947646
-0.0061504208
-0.023836024
-0.086365186
0.0358481
0.0044541047
0.017177122
0.095264055
-0.10782829
0.19784999
0.03785805
0.048259914
-0.050833806
-0.007243816
0.068986274
-0.07891503
0.10521276
-0.014206558
-0.06525704
-0.26167724
0.0005971186
0.13727327
-0.079355635
-0.012817615
0.109965734
-0.018889781
-0.19819264
-0.14965121
-0.10126108
0.10570418
-0.000342631
-0.25105488
-0.095690966
-0.11929881
-0.06753344
0.012724058
0.037904754
-0.101480186
0.029569393
-0.10627498
-0.12875338
-0.068975255
-0.28447995
-0.07304711
0.11968649
-0.07291311
0.07031008
-0.14977275
0.07379479
-0.0132781975
0.12476685
0.053869974
0.051289186
0.13425347
-0.18091954
-0.06708883
0.06335245
-0.057023905
-0.011160893
0.16723575
0.03678873
0.10244961
0.19392101
-0.055358782
0.09293723
-0.08697538
0.10329084
0.061724573
-0.15004995
0.10521852
0.13693672
-0.15085115
0.19926167
-0.083093844
0.20517729
0.22202139
-0.036647376
0.20129482
0.10116967
-0.0974985
-0.0971769
-0.01785735
-0.1553641
-0.13201973
-0.007074391
-0.016089603
0.189922
-0.041684322
0.07095762
0.05125707
0.04799979
-0.010227612
-0.04670668
0.01675249
-0.041177973
-0.06015718
-0.17830712
-0.19209144
0.005086288
0.03734942
0.13988845
0.016212974
0.044505984
-0.20155232
-0.06765408
-0.032848302
-0.08850205
0.041637816
0.009340523
-0.022956625
-0.090788476
-0.10283109
-0.05701801
0.05438769
0.29014367
0.006602612
-0.026424669
-0.120170765
-0.20082961
-0.20180438
0.025111536
-0.11755491
0.029160962
-0.26908946
-0.1757411
0.14707087
0.27590144
0.4339889
0.13373674
0.19605204
0.041178484
0.18915774
0.027044963
0.017254014
7.57E-05
-0.11055505
0.0379954
-0.10720736
0.16531791
0.00028255206
0.0088192485
0.12626737
0.15193868
0.11439313
-0.049366537
0.19894302
0.08001908
0.21387401
0.14147118
0.17584738
0.21076497
0.30225933
0.2616569
-0.045417827
0.20286928
-0.00424548
-0.006763215
-0.08210719
0.08768844
-0.042857967
0.08850004
0.0762202
0.037196655
0.33501825
-0.041812535
0.0029549662
0.022913182
-0.079981655
0.11467976
0.09904231
-0.14160934
-0.254561
0.03845085
-0.053216044
-0.14532526
0.028747566
0.084046945
0.15178517
0.04807524
0.10598503
-0.023072163
-0.057941157
-0.23357888
-0.015399867
0.064474866
0.117084645
0.15287647
0.33578587
0.18196213
0.19190001
0.048283376
-0.1156025
0.052393436
0.08282281
-0.0630061
0.04209694
-0.114089645
-0.08209809
0.24784619
0.11980392
0.08912425
0.07459199
-0.07297902
-0.03700641
0.07116757
-0.13356486
-0.1098147
-0.17957816
-0.10904442
0.1638362
0.2678993
0.24304311
-0.009892001
0.082444444
-0.043011714
0.07165402
0.012661752
-0.14782917
0.16169754
0.20769106
0.20294355
-0.016230853
0.10363558
0.012536053
0.03916275
-0.12187797
0.14557122
-0.087459594
-0.009256829
-0.03586905
-0.15822151
-0.11417827
0.0662359
0.01918659
-0.076684065
0.17207609
-0.15369353
0.17252696
0.120748825
-0.004491996
0.16856207
-0.11698119
-0.065542325
0.058243655
-0.06612904
0.1916606
0.024099128
-0.16245945
0.1070369
0.12175191
0.12083935
-0.16931976
-0.066634655
0.11127881
0.04670085
0.2028654
0.03955545
-0.18075204
-0.084306344
-0.28499976
-0.063708805
-0.0012032986
-0.17593741
-0.14984974
0.02325925
0.03207028
0.083256066
-0.008880601
0.18218385
-0.007019383
0.014068734
-0.13709211
-0.27009037
-0.214866
-0.11274067
-0.20810363
0.03238562
-0.10884637
0.10975862
-0.15837508
0.05498884
0.07060856
-0.23737562
0.13905911
0.3066158
0.120013684
-0.11112461
-0.103765845
-0.12021141
0.13241032
0.03794604
0.07388326
0.10117808
0.113119334
-0.0026952478
-0.20815505
-0.08309046
-0.0896913
-0.06414163
-0.24718222
0.020245897
0.00058620033
0.010567824
0.005354361
0.1600919
0.20093155
0.024837252
-0.45458597
-0.4295328
-0.23950413
-0.33219197
-0.10870026
-0.03902283
-0.03964594
-0.1627698
0.19037896
0.053189516
-0.056809824
-0.068390094
-0.38729897
-0.077795535
-0.3997875
-0.2466174
-0.022166565
-0.024579218
0.075082764
0.14563963
-0.022439925
0.028287264
-0.0044545084
-0.02799519
-0.22333626
-0.11576171
0.00017466838
-0.06256827
-0.30626082
-0.29232022
0.061867602
0.1465474
-0.10019398
0.11253627
-0.12962547
-0.095411025
0.17523293
0.22433358
-0.10156288
0.072811574
-0.088653825
-0.05838365
0.032588895
0.1215945
0.16006623
0.14525662
0.006248608
-0.24359283
0.1744984
0.11553062
0.127222
0.12602374
0.19088298
0.0093596745
-0.08677205
0.075822085
-0.04081028
0.16915464
-0.07149903
-0.1901592
0.17880519
0.16778393
0.039890856
-0.12947711
0.04588938
0.20476742
0.15774345
0.21663284
0.10767104
0.048779305
-0.0709682
-0.06350785
0.17605913
0.0723324
-0.074228466
0.18974262
0.2228923
0.026312644
0.05371991
0.14939767
-0.1450364
-0.077076346
0.17383939
-0.06813487
0.20441057
-0.06914082
0.02556445
0.11334627
0.07143575
0.17552605
0.047674276
-0.03745882
0.0014595339
0.08278186
0.11443357
0.17190681
0.11198807
0.24188025
-0.13332415
-0.054590084
0.0842839
0.11986105
-0.16175318
-0.23297992
-0.0009076452
-0.0139531875
-0.08917427
0.17837967
0.2408309
0.07451912
0.13768555
-0.12092452
-0.015148473
-0.13240744
0.004746771
-0.27401748
-0.39140895
-0.4017411
-0.19299263
-0.06616008
0.0032824057
0.24409612
0.19747393
-0.067265004
0.12541829
0.16488427
-0.0052281506
0.16998881
-0.06212887
-0.055527758
0.051819857
0.30543485
0.1369617
0.103125006
-0.014932023
-0.054716513
-0.03535374
0.011446437
0.018225199
0.04354259
0.067424454
0.05729977
0.19458187
0.14733848
0.029448478
-0.00035110308
-0.20212996
0.13167076
0.15315151
-0.12161935
0.054266132
-0.1786457
0.05552249
-0.032874323
0.042057138
-0.091463186
-0.095284574
-0.23086713
0.06819062
0.038358986
0.08963519
0.17428158
-0.12876663
0.11519627
0.0994003
-0.19589877
-0.18035129
0.17275755
-0.039561026
0.0069770548
0.105286226
-0.11890325
-0.08445911
0.1680962
0.12056348
-0.08739201
-0.15112436
-0.15351424
0.00028707934
-0.0114414655
-0.0027948315
0.080298476
0.088804185
-0.1054538
-0.051504206
-0.0007719734
0.06787062
0.059717122
-0.111398794
0.003861554
0.02965617
-0.05995165
0.01210763
-0.2334142
0.03630544
-0.051453225
0.031818744
-0.12176679
0.010950742
-0.09042714
-0.09457864
-0.07630885
0.13107777
-0.026932288
-0.14425926
0.12757178
-0.06039574
-0.14689532
0.028351968
-0.1351622
0.21938355
-0.02460198
-0.08253437
0.20987526
0.15614869
0.12145965
0.116223365
0.110823266
0.1275584
0.11327656
-0.13275844
0.036836527
-0.13182384
-0.061453
-0.13626532
0.046620995
0.1984847
0.027310692
-0.10527371
0.16728921
0.15185975
-0.090551965
0.12078705
-0.12935536
0.09073668
-0.12935652
0.11956173
0.18914366
0.042857744
-0.13845749
0.026827397
-0.08352055
0.19252317
-0.036859225
-0.10573544
0.12350821
-0.016968722
-0.044609893
0.15945838
0.11244477
-0.08713161
0.13413969
0.014710011
0.16305566
-0.07866299
0.088104755
-0.1163985
0.11615842
-0.061154857
-0.0806236
0.27895543
0.2004891
0.26761416
0.116500296
-0.040596604
-0.024973921
0.13740128
-0.010827973
0.051155843
-0.10561466
-0.115056455
0.16443215
-0.18120918
0.1620984
-0.033815693
0.10060325
0.014550068
0.055418037
-0.13059975
0.05158878
-0.008550165
-0.16965176
-0.18969704
-0.14281183
0.12977546
-0.037594125
-0.10693014
0.15243585
0.025001062
-0.08982869
0.113972016
0.06396925
0.03212829
-0.12674397
0.0034970478
0.02935863
-0.11292473
-0.0026700867
-0.118875735
0.06665784
0.15838373
0.1499437
-0.09868996
-0.14972094
-0.18714467
0.15962137
0.19255567
-0.048215717
-0.13125719
-0.042858228
0.120007865
-0.091457024
-0.18685073
0.10569516
0.05765831
-0.059337344
0.016924022
0.06976715
-0.07722776
0.11156458
0.14716226
-0.18925846
0.096954264
-0.09683441
0.07573046
-0.110688016
-0.056557883
-0.19805796
-0.11386304
-0.06402563
-0.022008039
0.046220306
0.09650668
-0.19288196
-0.20275126
-0.061788544
0.13088135
-0.030028004
0.059467092
0.022790805
-0.03455495
0.14885925
-0.18793365
0.1197401
0.12278598
0.16833661
0.15619372
0.068703055
-0.1036612
-0.21731324
0.1428269
-0.21872145
0.03564239
0.10432884
0.023807364
-0.02978477
0.15688232
-0.1545873
-0.17926843
0.07901633
-0.14300178
0.15064159
0.084689364
-0.19587968
0.11971667
-0.19038013
-0.018220842
-0.122881755
-0.0927387
-0.13876894
0.15573135
0.048530757
0.0115256915
0.018245732
0.030993303
0.06580872
0.058338616
0.05615056
0.1444958
-0.1758826
-0.17950991
-0.08041581
-0.09357862
-0.09675087
-0.17634642
0.038027246
0.07330137
0.14438902
-0.07231351
0.10656024
-0.012396448
-0.09485225
-0.15327737
0.10575646
-0.14873697
0.1207909
0.06609096
-0.03514814
-0.019211061
-0.19980887
0.04708644
0.1089233
0.12954104
-0.085024536
-0.18485293
-0.0403412
-0.0027789327
0.03114122
-0.113694005
-0.33621648
-0.23761885
-0.28225696
-0.11837792
0.10095663
-0.20371325
-0.23598553
-0.2419419
-0.039931033
-0.25167283
-0.26499185
-0.22422905
-0.068947546
-0.07088691
-0.09028009
-0.116396174
0.06014913
0.036807492
0.16778494
0.06910135
-0.05713369
0.057249658
0.0819394
0.0022774173
-0.11666375
0.16588831
0.18275385
0.036054384
0.2649053
-0.031505942
0.04262603
0.05680973
0.00018895484
0.10903737
-0.12851529
0.05876614
0.09018648
0.038855933
0.084085464
-0.02024678
0.07459307
-0.026022382
0.014726142
-0.1038146
0.083801836
0.03108402
-0.07241518
-0.1535483
-0.009519275
-0.057890166
-0.07165858
0.014324996
-0.15712118
-0.117486656
-0.15792191
-0.19502239
-0.25840273
-0.12791619
-0.079476856
-0.15407309
-0.13220838
-0.021347523
0.043403924
-0.142932
-0.23054685
-0.026297688
-0.23226793
-0.04943794
-0.077566296
-0.109003834
0.07524637
0.056874216
0.07671656
0.20674726
0.14541984
-0.20612112
-0.175529
-0.2880056
0.0403485
0.07497167
-0.1891202
0.12018278
-0.06504661
0.25244534
0.06703754
0.15976278
-0.06270845
-0.053570237
0.11725509
-0.22332421
0.0029520418
-0.17181687
-0.037759125
0.09131222
0.20350419
0.12891965
0.10097893
0.01126627
0.1922997
0.017328374
-0.10514246
0.040282402
-0.07016555
0.14269616
0.075552195
0.119592175
0.1700155
0.22628723
0.35351244
0.058927435
0.008793278
0.23365374
0.087787926
0.2313395
0.018499175
0.0380279
-0.0034888787
0.2895206
0.27380642
0.17326933
0.23420264
0.17372172
0.16463967
-0.034027055
-0.11411692
0.054479446
0.15984072
-0.028210511
0.28670442
0.011031935
0.30967283
0.1122682
0.05198028
-0.107608825
0.1064492
0.09874186
-0.048729263
0.19224143
0.21054912
0.029766895
0.03463781
0.2795545
0.31687406
-0.16148263
0.10178037
-0.053756922
0.08185134
0.033504307
0.32984227
0.14361878
0.20403545
-0.08733572
0.07433751
0.16007659
0.21009974
0.12269189
0.114540644
0.14118856
-0.031106593
0.25359744
-0.023917936
-0.021586562
-0.0143051185
-0.018292233
-0.16138943
0.14074963
-0.04766275
0.04914647
-0.008642311
-0.010595744
0.27165076
0.12506196
0.13323489
-0.10771728
-0.15611139
-0.2625498
-0.14718348
-0.2522797
-0.018983694
0.14072931
-0.083951004
-0.10809161
0.015863748
0.047356486
0.057403214
-0.06683823
-0.16660288
-0.26494455
-0.057746544
0.034782704
-0.16430172
-0.045023218
0.17564815
0.26094162
0.0040238225
0.13945413
0.27027076
0.19286942
-0.056947853
-0.25377098
-0.05349984
-0.15566069
0.10362471
-0.0031378123
0.054607388
-0.04474165
0.022652261
0.31543168
0.17236727
0.1306407
-0.03245572
-0.109367356
-0.021657098
-0.15024517
0.006047547
-0.11691452
-0.095215715
-0.13077034
0.062305335
0.0963574
0.20995858
-0.07007752
0.11256645
-0.03734509
-0.11686769
-0.15627392
-0.13113897
-0.14967181
-0.15648755
-0.06650986
-0.025482357
-0.13139771
0.096287176
-0.15933233
-0.062674195
-0.08982634
-0.010623116
-0.066778205
-0.018341076
-0.15708993
-0.13659751
-0.05970491
-0.05605911
0.029671634
-0.3103818
-0.14031124
-0.002168609
-0.108621836
-0.16709413
-0.2570486
0.1754397
0.068600304
-0.071589306
0.038326494
-0.036851432
-0.08144972
-0.080025405
0.0059268493
0.0005184657
0.024657842
-0.030399295
-0.02162203
0.25090823
0.13766108
0.04455044
0.11622907
-0.006180981
-0.08772354
0.011411451
-0.10342219
0.12057051
-0.05645498
0.15694982
0.24473825
0.15357098
0.27336878
0.31913185
-0.004204042
0.2576245
0.090374865
0.16293965
0.058144175
0.24022351
0.13171925
0.24740435
0.31062743
0.22959472
-0.27261773
0.059057046
-0.5968181
-0.092378445
0.26237753
-0.5526591
0.19866592
0.46006438
0.27777553
0.15857174
-0.27957273
0.18297116
0.15714225
-0.39564428
0.23291671
-0.30331743
-0.2473863
-0.24643199
-0.33792558
0.108452395
0.1619155
-0.5352412
0.60207474
0.14174064
-0.0355679
0.41788048
-0.33020425
0.13253845
0.34029302
-0.717474
0.7719045
0.14210771
0.29408774
0.008729823
-0.58999217
0.62867135
-0.14717971
0.1645316
-0.53547096
0.30758563
0.47372994
-0.20770922
-0.43722454
-0.046518594
-0.24314965
-0.067252226
-0.31067434
-0.12499079
-0.0915799
0.038692705
0.15853836
0.4717498
0.10387016
-0.0094654085
0.22888717
0.09987927
-0.34775847
-0.1102982
-0.045774963
-0.06931977
-0.0038494838
0.18811011
0.24340029
-0.44914606
-0.21879117
0.2888872
0.033841502
-0.23877673
0.3630249
0.39746535
-0.38186708
0.026938826
0.20719104
0.3878332
-0.323177
-0.12232132
0.14288484
0.4190691
-0.33376265
-0.21117921
-0.27774012
-0.017673606
0.0044306437
0.40540808
0.24043359
0.3881369
-0.33096185
-0.21823648
0.071488366
-0.12457322
-0.21856977
-0.05267504
-0.31371135
-0.070550315
0.26296356
-0.17939018
-0.27456403
0.052681167
0.55540633
-0.43501717
-0.30232146
0.031607945
0.19149697
-0.26621604
-0.096674636
0.38526094
-0.2882251
0.2964313
0.14980131
0.06464803
-0.4710897
-0.20189641
0.09816433
0.5349283
-0.18232061
0.018500486
0.31151262
0.28820398
-0.31589207
-0.075546235
-0.5792453
0.36599693
-0.45955554
-0.28100786
0.09137954
0.32250103
-0.3826189
0.32845184
-0.24301846
-0.13043325
0.17248085
0.45027524
-0.3200794
-0.16914359
-0.17710702
-0.38435602
-0.24511446
0.41336477
-0.18605812
-0.16337708
0.35485637
0.0005079948
-0.056063224
0.42933643
-0.19390132
0.15540002
-0.025187787
0.26096883
-0.34536004
-0.27426618
0.22477402
-0.38533214
0.822637
-0.28140086
0.078548566
0.45165828
0.35279593
0.22815076
-0.12580444
-0.57315594
-0.19045933
-0.1439124
-0.3145225
0.17609812
-0.32973027
0.18757334
-0.06756252
0.29747748
-0.012945561
0.12825775
0.13714905
0.18329233
-0.4805211
-0.1995192
-0.17291582
-0.23405479
0.18888204
-0.31530192
-0.6769263
0.017401733
-0.29181132
0.22787984
0.17715201
-0.05049765
-0.24583134
0.07935052
-0.11068683
0.12323304
0.5354861
-0.26863182
-0.35282114
-0.05796121
-0.30418336
-0.23230341
0.2865693
-0.4030107
-0.06830812
0.36866903
0.20688905
-0.45341864

