-0.07467776
0.02565238
0.030089095
0.018939435
0.019821387
0.05482244
-0.005687353
0.04326134
-0.052720718
-0.035965696
0.03655565
-0.0037229862
-0.044918705
-0.08996621
-0.014493014
-0.04227573
-0.10668548
-0.0070927716
-0.034328267
-0.11183295
-0.07337213
-0.002055794
-0.15838037
0.2282564
-0.124803275
-0.14217247
-0.057429157
-0.04088334
0.115534425
-0.012018671
0.009461712
-0.059124615
-0.17795031
0.114453144
-0.026860248
0.090384714
-0.07397276
-0.0042447005
-0.10961739
0.20770156
0.018111257
0.043068662
0.10722803
-0.21165489
0.37021828
0.04276821
0.026942974
0.021453865
-0.0944714
0.13986662
-0.07548334
-0.026520062
-0.136899
-0.06472102
-0.07285727
0.052187953
0.017406385
-0.19440514
0.0035616958
-0.07313616
-0.066080704
-0.0073533487
-0.010811451
-0.07112659
-0.10749184
0.07780124
-0.0018386862
0.022671608
0.013785086
-0.045282774
-0.049648628
-0.020729618
-0.056928378
-0.045702334
-0.06227222
-0.04213331
-0.004463996
-0.18020974
0.01862749
-0.09700042
-0.04642574
-0.13110784
-0.16731836
0.063954554
-0.026510254
-0.047927715
-0.013571391
0.081464946
0.041144285
0.25301266
-0.28765962
-0.024805766
-0.016651174
-0.0943473
0.029211145
-0.4394137
-0.21643516
-0.13914223
-0.28060913
0.01539884
-0.4074627
-0.13968033
-0.071379595
-0.14356619
-0.025094049
-0.02656029
0.05092656
-0.12553287
-0.05172748
0.024865929
-0.0912523
0.018717095
0.028314589
0.09300939
0.05065082
-0.02883875
0.049760833
-0.048937306
0.033110708
0.12601691
-0.049662407
0.031980228
0.085813306
-0.08877057
0.22091666
0.044248987
0.011228093
0.0749517
-0.12479396
0.038274117
0.03442206
-0.04460579
-0.02755427
-0.058344048
-0.05287207
-0.051430345
0.012091619
-0.088356875
0.09487196
-0.02860511
0.08863213
-0.084132716
-0.1868022
0.052314617
0.017167607
0.12844336
0.11229059
-0.01844386
-0.14613481
0.019669758
0.02646685
-0.055851195
0.06253482
-0.06459193
0.10573005
-0.07591762
0.1629583
0.09195317
0.030566553
0.09220445
-0.18793458
0.036808092
0.07889532
0.1264286
0.02475377
-0.2725033
0.1837556
0.09233666
0.18196818
-0.035959255
-0.39059335
0.14888024
0.18484895
0.23108052
0.057080485
-0.3706853
0.15104285
0.024313081
0.21270674
0.12479147
-0.27659267
0.069550164
0.111515425
0.2555326
0.06809031
-0.11834347
0.21430188
-0.06588611
0.10643251
-0.11471625
-0.015785728
0.073995195
-0.016848164
0.032118417
-0.04212805
0.03853298
-0.020320518
-0.0006187303
0.13889824
0.05155403
-0.018723601
-0.08302979
0.0106694
0.048691377
0.065216266
0.06398372
-0.0022327187
0.08051981
-0.243419
0.1286732
0.07538712
0.0653728
0.0076159528
-0.13479719
0.020446867
-0.023437046
0.16510645
0.14630395
0.115793586
0.053196594
0.0044160555
0.1523337
0.21122421
0.11618453
0.16973577
-0.010566042
0.11085689
0.25496778
0.24299593
0.029189438
-0.17486899
0.09009939
0.20405103
0.33868945
-0.03727416
-0.35603386
0.07075879
0.11053253
0.23847784
-0.044033315
-0.26442775
0.23157163
-0.03961067
0.20166312
-0.3086303
-0.30995286
0.12437241
-0.098023385
0.20000508
-0.28860426
-0.085278526
0.21319196
-0.0020244818
0.31842184
-0.098332345
0.052224517
0.051156335
0.14407787
0.17076474
0.19953035
0.071557924
-0.014344913
0.01871648
0.12751177
0.13086109
0.03891325
0.15017302
0.048600063
0.14346302
0.06358924
0.066635534
0.1321708
0.13563326
-0.16649559
0.076911174
0.15398549
0.09634143
0.16108957
-0.114048846
0.084225856
0.11604113
0.1599636
0.044487853
-0.118555725
0.0077002654
0.066944435
0.123870805
0.11539279
-0.022627443
0.108859584
-0.11546066
0.15055804
0.14463411
0.26031867
-0.06205748
-0.04870273
0.16444011
0.11763937
0.2623769
-0.1536947
-0.15209308
0.16868666
0.1710414
0.22658873
-0.20701718
-0.040895097
0.11559157
0.17537391
0.23487449
-0.2944997
-0.12812313
-0.017800964
0.10711648
0.18240775
-0.19622159
0.086676985
0.14917046
0.11310781
0.39083123
-0.23574202
0.19916524
0.1886844
0.33790565
0.012381302
0.28955808
0.13881253
0.10465506
-0.026963828
0.21528506
0.04295396
0.023834798
0.03069405
0.18641812
-0.093321316
0.13342777
0.060487524
0.1592428
-0.12940234
-0.30795622
-0.06273387
0.09318831
0.038217075
0.056345914
-0.3571201
-0.0059696874
0.08428603
-0.018258622
-0.055128574
0.0047852537
-0.055643216
0.09189818
0.12582038
-0.12463726
-0.1280872
-0.09873376
0.037350196
0.26010743
0.17601456
0.38261634
0.077011295
0.10114229
0.23688173
0.23526914
0.30846295
-0.028127044
-0.05367294
0.24367438
0.14116232
0.24080573
-0.18293513
0.13065824
0.05395283
-0.030895641
0.17904711
-0.35260946
-0.1306724
-0.059725404
0.019659702
0.2645068
-0.31530815
-0.16480213
-0.051840153
-0.06630385
0.55672836
-0.63858676
0.16447796
0.021487478
-0.21807602
0.6652521
-0.14380316
-0.014538925
0.008886531
0.028535439
0.08655498
0.01556266
-0.023515398
-0.10327388
0.1313611
-0.112346165
0.103893034
-0.047273494
-0.13171381
-0.1801545
0.014290539
-0.37779614
0.024308758
-0.16436832
-0.30447102
0.06755831
-0.46026993
0.0732708
-0.21450526
-0.36038846
0.22267523
-0.32022095
-0.16184348
-0.10975968
-0.25302538
0.17699632
-0.12916373
-0.043129295
0.26031545
0.10689959
0.24348347
-0.061558932
0.061840303
0.16787551
0.02351878
0.12559408
-0.040736943
0.14917894
0.06608172
0.18360132
-0.16234395
-0.041898925
0.222463
0.12088929
0.099123694
-0.16302446
-0.16510212
0.03454513
-0.022864169
0.24720214
-0.18342447
-0.062858924
-0.4090428
-0.27717802
-0.009109742
-0.08625972
-0.28978753
-0.06170329
-0.33817497
-0.38005972
-0.035799507
-0.19888435
0.012701723
-0.020914258
-0.06011746
0.048079703
-0.0089098
-0.15393844
-0.111747704
-0.1758107
0.21203175
-0.22615542
-0.14289865
-0.26403305
-0.14401068
0.2809297
-0.32081026
-0.053188313
-0.35739982
-0.38934538
0.35410953
-0.5886922
-0.0034886466
-0.107235566
-0.35024673
0.34222034
-0.5185609
-0.10951235
-0.06292813
-0.08345119
0.23636453
-0.23119347
-0.18640235
0.04802191
-0.06411864
0.072892584
-0.07646016
0.03645308
-0.00036474422
-0.07485558
-0.0032339299
0.016656946
-0.08235318
0.161949
0.0578594
-0.31468624
0.09308003
0.077059016
0.17775337
0.0737547
-0.08537293
-0.20333722
0.04675472
-0.0057670106
0.10767664
-0.26600686
-0.00081945566
-0.16618879
-0.10772414
-0.08956179
-0.19545634
-0.37573245
-0.081593975
-0.29041246
-0.24021311
-0.21128355
-0.3215618
-0.054967623
-0.11021313
-0.002278575
-0.12898219
0.014098121
-0.2247303
-0.11420151
-0.026026823
0.27963296
-0.047344413
-0.08284743
-0.05032409
0.032482915
0.77346027
0.013565244
-0.0075553944
0.089165635
0.09352015
0.695533
-0.2854079
-0.0026993004
0.029831389
0.07793145
0.67230505
-0.31176117
-0.13876206
-0.022861188
0.11636766
0.39839023
-0.11471387
-0.1436079
0.13096333
0.09680819
-0.01086291
0.04818346
-0.06882324
0.040026404
0.007887708
0.035079304
-0.023591222
-0.05371306
0.0824862
-0.02572184
-0.14835401
0.06906295
0.0061185923
0.0019209984
-0.034227327
-0.18767464
-0.017087538
-0.061189707
-0.0058733607
0.103713825
-0.33253825
-0.05866929
-0.20159246
-0.24464421
-0.3589979
-0.3559356
-0.22035976
-0.1257801
-0.30029145
-0.3085078
-0.5389312
-0.07424804
-0.017904742
-0.018637052
-0.04571753
-0.046519484
-0.028856916
-0.07748257
-0.08564557
0.024109919
0.0153266005
0.07649886
-0.07796232
0.027152149
0.09514828
0.5008278
0.023336994
-0.008206963
0.086386316
0.087703936
0.44575527
-0.10857846
-0.25562972
0.059925333
0.008023637
0.4573451
-0.11026912
-0.252326
-0.002182455
-0.038019825
0.18462747
-0.0553966
-0.2566206
-0.057930168
-0.018297862
0.21313295
0.16377935
-0.25882402
0.05371153
-0.21449876
-0.006519775
0.027460063
-0.079499565
-0.020957308
-0.26252335
-0.15366843
0.093364
-0.12499356
0.0023382064
-0.09120861
-0.19588695
0.043345913
-0.065857194
-0.014174398
-0.07805471
-0.36351794
0.084069006
-0.135179
-0.25446448
-0.04265663
-0.6671383
-0.07066439
0.025589265
-0.10123331
0.073740914
-0.5310373
0.04943493
-0.04617477
-0.038195297
-0.07551009
-0.113250434
-0.059191942
0.070173815
0.060029898
0.0853382
-0.0007962221
0.028230518
0.04648306
0.05643051
0.09094521
0.1123312
-0.004811108
0.0055719744
0.0982065
0.2024903
0.26888958
0.150978
0.04719461
0.16202551
0.21096389
0.039426353
0.068789855
-0.1722823
0.12747268
0.11832373
-0.056956228
0.060735874
-0.1839102
0.1298674
-0.072792985
-0.090240575
-0.0609253
-0.07276508
-0.16251184
-0.16784748
-0.16473068
-0.06427698
-0.14684996
-0.0721276
-0.10611302
-0.3375244
-0.048558533
-0.028384961
-0.16252089
-0.16613108
-0.06782645
0.05612988
-0.124898024
0.05417908
-0.11298774
-0.17332226
-0.011065743
0.05118761
0.116889976
-0.07980551
-0.14744483
0.0028393394
-0.035381638
0.08415831
-0.092673734
0.14237645
-0.061541278
-0.05410641
0.031021059
-0.07528689
-0.08354912
0.019840274
0.18809131
0.08893411
0.11762031
-0.1557676
0.24674638
-0.03932837
0.11201363
0.066907324
-0.1292085
0.14803092
-0.06018065
-0.072298124
0.08533372
0.012298456
0.120785266
-0.008955497
0.049475018
-0.00722232
-0.07277313
0.19096957
-0.09209997
-0.019164093
-0.02935602
-0.20834349
0.034306753
-0.11186161
-0.078992635
-0.08435127
-0.09873006
0.070760116
-0.04235183
-0.06805014
-0.11129916
-0.17771818
0.05135738
-0.14516169
-0.17370863
-0.09784959
-0.24800415
0.011464617
0.020957053
-0.15835962
-0.23684229
-0.095847234
-0.21462362
-0.02398912
-0.0970031
-0.12343622
-0.18340045
0.034422137
-0.038916033
-0.00909272
-0.01951358
-0.18548635
0.10298429
-0.10363169
0.0003036469
-0.08325042
-0.0984936
0.057841368
0.037014164
-0.0471156
-0.07681202
0.1399086
-0.06594785
0.13061854
0.16929148
0.047537923
0.3682775
0.08480135
0.10879472
0.094557144
0.17282556
0.059631657
0.17464165
0.120143905
0.1599593
0.028729163
-0.017895756
0.38297433
0.23415323
0.2666195
0.08629639
-0.18989247
0.5580379
0.29680625
0.12706722
0.24953172
-0.06855338
0.5636931
0.16382943
0.024842909
0.2373457
-0.1879472
0.776948
0.18718226
0.06159747
0.16689397
-0.13567695
0.66334957
0.11925279
0.16007932
0.27260688
-0.17527975
0.41043878
0.13489383
0.11542443
0.39135918
-0.12651728
0.340671
0.15094262
0.27316132
0.2845037
-0.15195155
0.2352439
0.11959164
0.1544782
0.09220614
-0.044232264
0.083380535
0.010585356
-0.004216921
-0.0045919353
-0.16835465
-0.054952517
0.011971344
0.12764409
0.068006426
0.13797846
0.029530093
0.116498664
0.1216974
0.10226777
0.12733129
0.12217244
0.116867974
0.20875764
0.089932516
-0.08183533
0.27323025
0.20969176
0.3072841
0.25598702
-0.3388053
0.2242549
0.3510147
0.30009124
0.3806634
-0.43513
0.27935687
0.38485107
0.44278452
0.33236077
-0.5436933
0.3052604
0.2355586
0.27095446
0.38856837
-0.5878995
0.25466636
0.3112001
0.24871808
0.19366834
-0.74900895
-0.13021058
0.35556668
0.23718555
0.30823344
-0.61274654
0.045424145
0.3724691
0.3677539
0.36759162
-0.52712303
0.14522259
0.22696933
0.23584326
0.3727131
-0.4679034
0.11888818
0.037091777
0.1267435
0.36614355
-0.07667233
0.3786558
0.018636888
0.19688496
0.049365412
0.18123189
0.13548921
0.13089988
0.051376317
0.08877344
0.12661812
0.021401718
0.06290557
0.09099864
0.12848608
0.09379219
-0.05649267
0.15444885
0.14955103
0.087992474
0.090755
0.044278968
0.1953725
-0.07042733
-0.034624647
-0.06368415
0.12547705
0.023839688
0.03903709
0.019948095
-0.17605115
0.010942362
-0.045262557
-0.16591099
-0.048355553
-0.14223
-0.04369279
0.038704358
-0.048997223
-0.06578542
-0.25744474
-0.0007257645
-0.07087361
0.08952223
0.075317405
0.013222378
0.19205354
-0.016564965
0.07704975
0.022008078
0.059166357
0.16286026
-0.006684434
0.056783292
0.019153085
-0.024054937
0.06740977
-0.013034776
0.15802906
0.11873317
0.12553799
0.21445812
0.07889825
0.05673177
-0.068156384
0.2679413
4.518105e-05
0.08956352
-0.026657399
0.06089072
0.2702498
-0.07822606
0.009435286
-0.00869528
0.08456072
0.1044154
0.0888914
-0.13519807
-0.07768788
-0.09810048
-0.15085849
-0.0058365944
-0.09856979
0.011843656
-0.08641827
-0.1592903
0.023413366
-0.17249584
-0.19105962
-0.075698115
-0.29053393
0.028684432
-0.23013635
-0.21875016
-0.28639454
-0.20778792
-0.030666761
-0.13801539
-0.1165279
-0.076438814
-0.10008905
0.04088567
0.015410262
-0.0918074
-0.13344926
-0.0960281
-0.0044041686
-0.19358838
-0.09258353
-0.17658901
-0.086524434
-0.048735783
-0.07885427
0.005643274
-0.28004918
0.00029767724
0.035377003
-0.15670268
-0.014477552
-0.05614976
0.11868809
0.23777989
-0.0020588054
0.015826223
-0.028507639
0.07259627
0.051171277
-0.003036436
0.020779958
0.13526419
-0.19319843
0.26253235
0.07326308
0.010448013
0.080203384
-0.20004877
0.021131413
-0.06746619
-0.028671572
-0.00887542
-0.104430266
-0.088449456
-0.02695717
-0.10400798
-0.00051885203
-0.28219467
-0.09350129
-0.013060101
-0.033989325
-0.01085236
-0.31598577
0.07804632
0.0656289
-0.15053827
0.018635716
-0.27612585
0.07815438
0.04489915
-0.18428834
-0.0058525507
-0.06935808
0.14894599
0.102535434
-0.09147218
-0.007513872
-0.11390053
-0.12926288
0.05632068
-0.16102333
-0.28852534
-0.08507124
-0.06974836
-0.20014033
-0.3131339
-0.33273834
0.035229567
-0.086091526
-0.23587488
-0.16426638
-0.306651
0.0723745
-0.001471984
-0.1714928
-0.069617845
-0.1142333
0.24288553
0.10271369
-0.054394953
0.04998823
-0.15979561
0.19342682
0.20427899
0.0056826835
0.053236093
0.102607824
0.066493005
0.11892302
0.028611511
-0.10896315
-0.14632899
-0.10408979
-0.018208193
0.005669862
-0.0145938955
0.007759333
-0.11315681
-0.021878023
-0.007105053
-0.079906315
-0.045615394
-0.12661362
-0.058382284
0.07382777
-0.07202084
-0.13937303
-0.29236123
-0.058984317
0.17116489
-0.010568721
0.0016868357
-0.35038954
-0.14074157
0.06980981
-0.09864063
0.03813636
-0.27181938
0.036309846
0.19975841
-0.09620931
-0.14430232
-0.081078246
-0.20640805
0.11800453
-0.39739132
-0.015897335
-0.015682977
-0.0052273907
-0.2940938
-0.27275497
-0.16509093
0.16934268
-0.027036952
-0.2046485
-0.224371
-0.2958336
0.2691565
-0.008024748
-0.3499971
-0.07761885
-0.056049176
0.31113
0.22013722
-0.104853794
-0.04536893
0.00770693
0.21393223
0.30189082
-0.06559902
-0.006590754
0.15627922
-0.007537651
0.463954
-0.067042634
-0.117843665
-0.03237361
-0.015989294
-0.07286585
-0.076343186
-0.15044951
0.110141315
0.03385814
-0.07178024
-0.12431096
-0.006907391
-0.29591122
-0.0021920404
-0.23282954
0.1593998
-0.10823369
0.11764399
-0.12980606
0.0070061
0.22547139
-0.004131574
-0.09095642
-0.39180398
-0.1329837
0.23290288
-0.0329997
0.09372919
-0.2746189
-0.19579932
0.4382151
-0.04486575
0.087728284
-0.11444087
-0.16816752
0.20726217
-0.08821576
0.16973285
-0.43184754
-0.08190884
-0.32224667
-0.21933378
-0.01751198
0.017551111
0.11110988
-0.26146707
-0.12931243
-0.09112468
0.4984503
0.06662384
-0.11945017
-0.044453554
-0.063471995
0.24831119
0.2808852
0.0016903612
0.19229186
0.021549052
0.13676105
0.19239068
0.1877099
-0.027307801
0.019963192
-0.35186222
0.10792389
-0.11031568
-0.10601776
0.01347014
-0.30765083
-0.17839967
-0.035013717
-0.088522375
0.024481963
-0.32372648
0.13130927
-0.21607612
-0.08340369
-0.1917077
-0.22286806
-0.24972625
0.1629154
0.0054136175
-0.044995267
-0.12077045
0.092561916
0.102702975
0.17746761
0.028435802
-0.014688818
0.061441217
0.12680675
-0.02777986
0.201341
-0.027552342
0.025525928
0.18401243
0.19429404
0.34504783
-0.20379262
0.022014963
0.20624888
-0.0049302983
0.116769195
-0.18687344
0.2537474
-0.032552086
0.038351536
0.297459
0.123514354
0.1260163
-0.1757078
-0.023733117
-0.10555886
0.3532904
0.027596392
-0.061687414
-0.06992149
0.040517867
0.23248579
0.007091871
0.067049615
0.10020735
0.06272045
0.1796073
-0.13046162
0.1239778
0.001303089
0.10896599
-0.14601405
-0.038255937
-0.16598974
-0.048620086
-0.20164032
-0.5218211
0.06659714
0.07654604
-0.0064695505
0.13814496
0.016556654
0.028972702
-0.18892226
-0.036286175
-0.13488653
-0.10827747
-0.26549676
0.09415515
-0.023128709
-0.062251154
0.08867786
0.03553409
0.054892726
0.0069102077
-0.0081828665
-0.3095673
0.1579415
0.06166323
0.008347301
0.0288334
-0.31221104
0.30222613
0.1420808
0.20573623
0.17877148
-0.28373113
0.30343077
0.3832915
0.19044448
0.2716581
-0.21306539
0.28725082
0.037050657
0.11817513
0.009745528
0.11395299
-0.10628301
0.04190399
-0.13873652
-0.19869807
0.24480428
-0.040933326
-0.13474937
-0.11451222
-0.012071418
0.2761277
-0.09982846
0.06101456
-0.053694855
-0.18751314
0.2704523
-0.018579436
-0.044218253
0.04270102
-0.1529567
-0.06654635
-0.07925646
0.08591093
-0.074015565
-0.015949063
-0.12111894
0.1361571
0.0896704
0.0056947735
-0.030925037
0.248657
0.056559887
-0.33330652
-0.30437753
-0.30634588
0.114563644
-0.418901
-0.05097923
-0.04896473
-0.33630374
-0.23560268
-0.047695067
-0.08158299
-0.048982
0.0037768595
-0.47676235
0.14953077
0.06461239
0.027407583
0.008131516
-0.4403025
0.29415822
0.28695866
0.080909975
-0.23615177
-0.24393035
0.124408856
0.074237004
-0.061262045
-0.075056836
-0.23401947
-0.028250288
0.20332228
-0.03700389
-0.1505591
-0.039432287
-0.281688
0.17491767
-0.10740246
0.032942187
0.0863268
-0.11676095
0.056453753
0.01548427
0.12917194
0.27394396
-0.13244775
-0.07038843
-0.03584137
0.07677096
0.12942109
-0.10299647
-0.15399812
-0.08287557
-0.19213869
-0.038221307
-0.04742722
0.072453566
-0.09425968
-0.15271106
-0.25879273
0.06571477
-0.058640882
-0.07163156
-0.030977324
0.095556356
0.004683185
-0.33188888
-0.21697804
-0.19286096
-0.37765163
-0.29502988
-0.077492416
-0.06836869
-0.34364077
-0.32400364
-0.025401875
0.078951985
0.10861444
-0.011529384
-0.331322
0.07290176
0.14562014
0.054813135
-0.0029888118
-0.18458423
0.13392326
0.21289466
0.008091971
-0.019094365
-0.10369828
0.10906953
0.23852587
-0.049816653
-0.08534432
-0.10962612
-0.14913389
0.18703368
-0.04399438
0.067555
0.13427675
-0.024747448
0.21442579
0.004153479
0.11445972
0.18458468
0.03737613
0.12986122
-0.10101346
-0.07915341
0.086117804
-0.052201573
0.042659014
-0.054921754
-0.0028203577
-0.052476276
-0.009495873
-0.069647886
0.020631436
0.0049162405
-0.008855391
-0.025750581
0.03979002
-0.06619767
0.016948653
-0.05651482
-0.051722728
-0.067832485
-0.041680023
0.06962208
-0.15319985
0.07996915
-0.15180373
-0.30150968
-0.18965037
-0.39009187
-0.1747028
-0.030146912
-0.14161319
-0.101128444
-0.35607538
-0.018006675
0.07264163
-0.052138828
-0.099153966
-0.2545673
0.040431824
0.13720873
-0.1378773
0.037275966
0.05186445
-0.04602354
0.25215
0.06814558
0.050645012
0.0413736
-0.058746457
0.3786255
-0.05958306
0.1714561
0.09288989
0.05696956
0.18153776
0.044858962
0.111408725
0.066069245
0.029499345
0.1785995
-0.061319046
0.028601049
0.066648945
0.071731426
0.034663264
-0.020194521
0.06892101
-0.19289792
-0.020737806
0.01281864
-0.0971837
-0.0047243787
-0.013254008
0.08653819
-0.034557078
0.0487076
0.02099287
-0.10904091
-0.12756722
0.021674752
-0.059793636
0.082757786
0.09030336
0.08612525
-0.006663079
-0.03892204
0.02503562
0.018744104
-0.008880208
-0.04501615
-0.0628812
-0.08673116
-0.05400738
-0.23631735
-0.006278425
-0.22846816
-0.15402073
-0.08600616
-0.15840125
0.050013337
0.009080671
-0.25665897
0.039550144
-0.18950692
0.11150466
-0.040541798
0.041487202
0.08247204
-0.14324093
0.061423972
0.07391808
0.0901099
0.056550607
-0.015673563
0.15585661
0.032330208
0.31389728
0.089679174
-0.055916153
-0.0008578789
0.005493704
0.10216427
0.009385177
-0.01685936
0.16044988
0.13700609
0.18606508
0.024156336
0.08653111
0.12486701
0.23900062
0.17681482
0.04417053
0.04377409
-0.016618265
0.10685682
0.07850599
-0.012666337
-0.0119245155
0.034073047
0.013393334
0.00069212867
-0.059126023
-0.06330064
0.10418172
0.044540036
0.026598124
0.04002686
0.118209004
0.018989684
0.119201645
0.08291686
-0.0006106317
0.013136875
-0.21311973
-0.2795274
0.06683168
-0.33771217
-0.0895296
-0.16040665
-0.10362695
-0.16791928
-0.14401561
-0.19341707
-0.17362635
-0.18438023
-0.22074597
-0.04825965
-0.33099112
-0.07176905
0.062316027
-0.20226108
0.13721845
-0.30011657
-0.007192429
0.07027912
0.09822505
0.056298967
-0.2824643
-0.11938449
-0.0069197537
-0.08527331
-0.007628471
-0.37560213
-0.10794451
0.0062592556
-0.19994423
-0.025298845
-0.37444362
-0.23856853
-0.040891454
-0.1981976
-0.081318334
-0.12597062
-0.11181514
-0.016648443
-0.2155868
0.14874513
-0.19168113
0.024285924
-0.04481742
-0.11897557
0.014515561
0.094848596
0.0900773
-0.008233597
-0.0055464264
0.10350521
0.09776872
0.04758053
0.13985948
0.0381672
0.2701108
-0.00913123
-0.075793445
-0.13897826
-0.14163741
-0.19725093
-0.10883468
-0.1688058
-0.09404082
-0.14463001
-0.17972758
-0.2218573
-0.09790322
-0.07832525
-0.2018766
-0.20745584
-0.14304844
-0.0788971
-0.037535176
-0.15539216
-0.26305112
-0.0015198939
-0.25789273
-0.065125115
-0.11427711
0.022904797
-0.0450252
-0.15075383
-0.084903456
-0.117936835
0.079109155
-0.115441926
-0.08795203
0.0639993
-0.06406747
-0.036847856
-0.044128347
-0.18427989
-0.02772993
0.07602088
-0.24574874
-0.19568536
-0.16766113
-0.08497503
-0.057626754
0.0117395045
-0.0479559
-0.18675038
-0.29307622
-0.33504993
0.05509317
-0.2833647
-0.18177986
-0.25211802
-0.34099612
-0.12670203
-0.25592884
-0.042803254
-0.10765292
-0.15847833
-0.20929721
-0.11552373
-0.108168244
-0.20017219
-0.15385003
-0.1841755
-0.1662843
-0.16502339
-0.095209494
-0.07387701
-0.06639906
-0.12705258
-0.10065147
0.020770695
-0.17767288
-0.09309583
-0.1532936
-0.052505847
-0.10544361
0.016390305
0.014033418
-0.10007315
-0.049457822
0.04154379
0.01043416
0.17297484
-0.07970223
-0.1270138
-0.022686478
0.0016231604
0.06646392
-0.13016957
-0.008031834
-0.043384977
-0.017669575
-0.01058379
-0.036532167
0.022763032
-0.1390189
0.07036983
0.0057639047
0.11624123
-0.10335782
-0.10223249
-0.0116691645
-0.04621995
0.07395516
-0.10256585
-0.13790962
-0.084321275
-0.008045546
0.05094086
-0.12582141
0.050942566
-0.100872025
-0.22757475
-0.076873906
-0.16824949
-0.088552825
-0.05730457
0.069847785
0.08582163
-0.078239635
-0.1310477
-0.040864192
0.2673502
0.08075975
-0.20689794
-0.0058332584
-0.16714565
-0.04190401
-0.23225951
-0.13870603
0.0068077375
-0.24717145
0.25154522
-0.082633175
-0.043002784
-0.08783464
-0.009380744
0.16438723
-0.035890404
-0.099379025
-0.061414525
-0.015040328
0.27559346
-0.012044214
-0.118396915
-0.006280399
-0.114357054
0.16692355
-0.060626365
0.09540023
0.0033530912
-0.020985287
0.023818908
-0.075611025
-0.00023484984
-0.011448208
-0.026274273
0.041513406
-0.06918884
-0.044725154
-0.07665007
-0.031577013
-0.106334195
-0.11615223
0.072568156
-0.088835806
-0.1016203
-0.08362869
-0.19715777
-0.07627931
-0.05591235
-0.118185386
-0.051370513
-0.023399306
-0.1412387
0.013159052
0.0012268102
-0.12269061
0.041350443
0.035364956
-0.009439504
-0.01222477
-0.12562366
0.11034119
-0.11156399
-0.0050501237
-0.012686147
0.0013946021
-0.033926383
-0.16821231
-0.10874437
-0.085192226
0.09171965
-0.155474
-0.13176546
-0.12777723
-0.19229195
0.060761843
-0.12141254
0.027368935
-0.0036395434
-0.097641714
0.11300354
-0.10273751
-0.073217146
0.060635876
-0.009212289
0.19094798
0.00023187713
-0.0663224
0.084955044
0.045873586
0.2513657
-0.016619498
0.09223606
0.14171211
0.0696876
0.06876074
0.021149393
-0.08884975
0.028428288
0.07788937
-0.028948532
-0.097197376
-0.03904188
-0.04806793
-0.10204652
-0.062212564
-8.859781e-05
-0.14100948
0.012561993
0.0122517375
0.015106351
-0.122264475
-0.10910347
-0.08224609
-0.14266025
0.00029423175
0.009079867
-0.063578494
-0.105163075
-0.016569907
0.037867498
0.013019601
0.1992628
-0.026916951
0.02072498
-0.2452184
0.061064444
-0.24125671
0.044492982
-0.01680667
-0.22703995
0.013733429
-0.10598935
-0.046446096
-0.19565614
0.008239719
-0.017555334
-0.10749795
-0.09678463
-0.011210236
0.2079599
-0.11133659
0.07094963
0.09430092
-0.16599435
0.16194437
-0.076282315
-0.1493566
-0.09687136
0.12187831
0.13493414
-0.0668172
-0.16964146
-0.08506691
-0.10156232
0.17167383
-0.19551371
-0.12644981
0.013871296
-0.13805021
-0.050383877
-0.13471228
-0.29744494
0.0018500234
0.009879375
-0.017874131
-0.21131994
-0.09599598
0.24575998
-0.05818974
-0.06176102
-0.13320218
9.714776e-05
0.1105201
0.08176357
-0.11941765
-0.11550143
0.15385494
-0.032099295
-0.06352363
-0.17182502
-0.14427179
0.004558305
-0.086109415
-0.076781176
-0.25001362
-0.09866887
-0.19034047
-0.041049592
-0.015789755
-0.04668649
0.008931641
0.0099084135
-0.007172969
-0.17371377
0.15942322
-0.16103232
-0.046907593
0.09608053
0.041983943
-0.14471695
0.12586853
-0.2362934
-0.06900075
-0.14875783
-0.013627655
-0.106081985
-0.02754734
-0.04809047
-0.1546436
0.26939398
-0.26425856
-0.17790207
-0.2279734
-0.20790766
0.21019936
-0.3269997
-0.31701365
-0.21460451
-0.2858795
0.6227247
-0.37881857
-0.33611754
-0.06415869
-0.27868572
0.61328363
-0.13692406
-0.48687387
-0.18661132
-0.37113267
0.3239516
-0.15922669
-0.2860471
-0.015357183
-0.4844162
-0.3057251
-0.11194649
-0.09271375
-0.0044956147
-0.054688375
0.07503959
-0.23458627
0.1105095
-0.16690609
-0.23692076
-0.288229
-0.25889152
0.003747355
-0.09889972
-0.098601624
-0.20337823
-0.14541914
-0.28327996
-0.13122475
-0.17198692
-0.010227972
-0.030734584
-0.25709692
-0.1962916
-0.29639915
0.41832963
-0.06651564
-0.030915366
0.11944585
0.05368424
0.1507995
0.36453608
-0.20693913
-0.09570276
-0.16851877
0.012285966
-0.19019166
-0.27830935
-0.26592296
-0.42794263
0.68875873
-0.40948936
-0.40690842
-0.33933103
-0.50084746
1.1259181
-0.4767437
-0.33104026
-0.31969362
-0.3180882
1.1079766
0.053941548
-0.52116406
-0.21028206
-0.09305351
0.31679976
0.1461144
-0.34025982
-0.18693125
-0.24459574
-0.23681054
0.19536902
-0.13745138
-0.17263469
-0.10127719
-0.26444727
-0.02429533
-0.17066991
-0.065198205
0.037193626
-0.3366403
0.040262606
-0.06586791
-0.1915846
-0.16192976
-0.38272908
-0.04262433
-0.08949148
-0.25559682
-0.22675663
-0.29122952
-0.0064911563
-0.24419807
-0.30593148
-0.33313602
-0.13412848
0.001463677
-0.08449052
0.011795009
-0.014685542
0.07324253
0.037185818
0.0973466
0.36454713
0.17293492
0.396827
0.30335847
-0.23209104
-0.2249217
-0.19106369
-0.1892321
-0.13861348
-0.510511
-0.40427533
-0.35771358
-0.22405705
-0.322552
-0.3852681
-0.29325366
0.1818005
-0.41762275
0.09740362
-0.2422976
0.0643595
0.20628305
-0.0073054815
0.19993396
-0.23704611
-0.035830744
0.18004896
-0.13200627
0.29579434
-0.16159335
-0.05356858
-0.04581349
-0.13469699
0.15294552
-0.11670202
-0.0932022
0.15487361
-0.09794203
0.13133183
-0.20968856
0.08604525
-0.017345559
-0.25348115
0.039783917
-0.30253592
-0.08447466
-0.1974091
-0.16326979
0.11286408
-0.3522189
-0.097475745
-0.08856645
0.14671054
0.11993873
-0.38266298
-0.080218144
-0.018221457
0.14771724
-0.10936414
-0.22068775
0.06521863
-0.007819248
0.46577996
0.042591337
0.16055754
0.24331832
0.1447841
0.49508014
0.36125758
0.018526128
-0.0136532085
-0.11528648
-0.058837153
-0.11736535
-0.110418834
-0.16670856
0.058263227
-0.2797378
-0.002105923
0.057921447
0.1175412
0.011832845
0.1454708
0.0042244117
-0.11929362
-0.05793067
-0.049942143
0.13067184
0.03897127
-0.18437824
0.030258123
-0.043770857
-0.18758212
0.015535855
-0.16222936
0.01754363
-0.12098938
0.010936659
0.07550937
-0.07730194
0.17445299
0.024831863
-0.19021
-0.036551476
-0.30438736
-0.1408259
-0.12549801
-0.19584498
-0.040777467
-0.42139307
-0.06266327
-0.20310771
0.036021773
0.08334918
-0.20199655
-0.13693182
-0.10877131
0.26739338
-0.15965706
-0.2336521
0.022390082
0.06197318
0.47985706
-0.18144444
-0.14912209
0.02150346
0.032231253
0.4284045
-0.16700926
0.27223086
0.16403161
0.26597637
0.5185103
0.3164069
-0.032432243
-0.0063536377
-0.15156099
-0.015929267
-0.030391358
-0.105859734
-0.050938442
0.020169467
-0.05267047
0.0643999
-0.001032477
0.16596968
-0.0058655213
0.17052597
0.0776962
-0.02275888
0.111712575
0.18658988
0.034812603
0.067603365
-0.01732409
0.0483062
0.14297286
-0.080509454
0.17346936
-0.15110314
0.11591732
0.057403404
-0.17372459
0.16679145
-0.17999156
0.14253984
-0.095152736
-0.14710988
0.0184618
-0.136298
-0.15759586
-0.064086005
-0.0036668822
0.065026976
-0.042903434
0.09803373
0.04414043
0.09995231
-0.20563757
0.057021387
0.10321337
0.10703231
0.5666672
-0.005584685
0.07990052
0.11754532
0.02115074
0.42858177
-0.13809784
0.32015696
0.07461448
0.075047374
0.18823937
-0.01315831
-0.032018762
0.1543948
0.16483903
0.46350577
0.09477541
0.00087151065
-0.07995119
-0.07589925
0.19914699
-0.13954009
0.093847275
-0.04783158
-0.0009570152
0.27252614
0.10291796
-0.018440643
-0.040479004
0.10898597
-0.09038282
0.15938874
0.095947936
-0.017230457
-0.013544402
0.105126135
0.071968794
0.03356968
0.14741567
0.054147586
-0.050853383
0.0798336
-0.036907252
0.01171567
-0.1628771
-0.17447859
-0.02860193
-0.06660647
-0.03869731
-0.072153695
-0.21228324
-0.05918692
-0.029724604
0.01333629
0.049814347
-0.06711094
-0.31073844
0.21631603
0.02879941
0.22464575
0.26179326
-0.22293326
0.25458688
0.11980253
0.2906979
0.37428412
-0.24236491
0.079905964
0.071530744
0.3071678
0.30210426
-0.06450356
0.15045764
0.09062043
0.09715806
0.49130383
0.013747408
-0.034424152
0.0810555
0.16272524
0.25534874
-0.035350434
-0.1605301
-0.21711668
-0.14980388
-0.028285906
-0.10042314
-0.030366732
0.07542492
-0.041106027
0.16722211
0.021989971
0.0048871962
-0.0871684
-0.10414039
0.055555817
0.0731906
0.038308885
-0.058183987
-0.12623318
0.009092337
0.060399786
-0.058542088
-0.011539422
0.000532916
-0.12037452
0.023713678
-0.07354298
-0.09247668
-0.027126556
-0.20535079
-0.02416207
0.20863962
-0.04116267
-0.12717225
-0.10414083
-0.13682085
0.1269865
0.01092056
0.009699507
0.026805714
-0.3239798
0.24618319
0.039657883
0.057877157
0.2040053
-0.14538194
0.07784017
0.13307683
0.09421445
0.3430723
-0.23816755
0.0034355612
-0.027494622
0.08456515
0.3586706
-0.27076897
-0.09534077
-0.047153134
-0.010053221
0.286248
-0.19421747
-0.026476502
-0.059310813
-0.030059336
0.19325882
-0.112425044
-0.0727172
-0.11646649
-0.100038126
-0.10056329
-0.08616137
-0.13754685
-0.01646273
-0.07592945
0.026446464
-0.18638593
0.0068412307
-0.065700665
-0.25930145
0.06798538
-0.26546884
0.014681379
-0.020615984
-0.0053459527
-0.07171957
0.23261659
-0.041261807
-0.100008585
0.1212277
-0.023094784
0.13369414
-0.06715554
-0.078015916
0.0027010785
0.031178156
0.23585926
-0.0032405227
0.02259338
0.028899414
-0.058395077
0.13764101
-0.064466566
-0.019804416
9.727664e-05
-0.064669296
0.05084713
0.03642395
-0.048377123
0.10369322
0.15118523
-0.2150562
-0.19660407
-0.17931385
-0.28008428
-0.12678589
-0.20612836
-0.2267132
-0.15955006
-0.2091158
0.0077074375
-0.18135385
-0.18438794
-0.01140002
-0.1376018
0.16399269
-0.11177862
-0.08006945
-0.022815036
-0.09757165
0.259991
-0.17496228
0.18252909
0.10699503
0.03921231
0.10747969
0.022876138
0.027915992
0.11583
0.11092718
0.084310204
0.16686326
0.06768475
0.045380175
0.036499776
0.04446265
0.07749875
0.07093344
-0.038772266
0.0109783225
0.18379942
-0.0784008
-0.07037095
-0.04408734
-0.045323063
0.116948694
-0.15678264
-0.13874769
-0.063289054
-0.14602916
0.18432446
-0.40926102
0.05015712
-0.19647571
-0.2751387
0.15635557
-0.32888347
0.07139119
-0.17574602
-0.14608443
0.30770344
-0.11901502
-0.020050168
-0.06040301
-0.04276138
0.39115095
-0.103800654
0.022942506
-0.051249437
-0.10243953
0.31051666
-0.15134776
0.009346124
0.17524265
0.04816944
0.19471748
0.08898016
0.094009854
0.042266313
0.034757495
0.16612889
-0.0014359422
0.123837166
0.055549268
0.035678808
0.11153407
0.038237087
0.16550921
0.08792731
0.17079006
0.13384232
0.037409097
0.049614396
0.023190496
0.10929469
0.31122547
0.059654135
-0.048829507
0.0050192126
-0.018874846
0.29833558
-0.07390369
-0.07336896
-0.094436005
-0.14110316
0.18492085
-0.10406531
-0.3006665
-0.16980895
-0.19417812
0.11689502
-0.038262915
-0.33027405
-0.31962448
-0.097890384
0.070047945
0.13692181
-0.5670725
-0.17348072
-0.046994317
-0.012485901
0.042217325
0.032344803
0.04787524
-0.11594339
0.17278527
-0.06151945
0.02948884
-0.12303424
-0.14295983
0.116667606
-0.13660453
0.0038754265
-0.1852366
-0.16738392
0.13847223
-0.17103232
-0.076550305
-0.24956653
-0.053413864
0.16433322
0.07335865
-0.03569909
-0.029561985
-0.16329752
0.16669843
0.046988193
0.11439687
-0.0005550402
0.09748027
-0.13131848
0.06457921
0.19602661
0.1589935
0.03338588
0.04751465
0.18919821
-0.018426627
0.06582073
0.12835613
-0.21714781
-0.09151892
-0.040905293
-0.10110233
-0.048346795
-0.09655872
-0.014955874
-0.10998698
-0.06911073
-0.13135688
-0.15620969
9.9395955e-05
-0.24229336
-0.03937018
-0.043345604
-0.1546046
-0.052623045
-0.31242585
0.14153318
0.0970089
0.111931436
0.11305847
-0.08098133
0.24314475
0.17080747
0.37639144
0.11481457
-0.060341455
0.14166206
0.22215319
0.27625296
-0.027113173
0.07831151
0.20103623
0.09837286
0.18469533
0.0071293246
0.05720812
0.04793405
-0.029999062
0.1397819
-0.07480092
0.13414544
-0.094672866
-0.114114895
0.027930489
-0.06743988
-0.035381876
-0.099757746
0.08434121
0.1300931
-0.13291559
0.08652291
0.07747469
-0.013758775
0.050729774
0.033015292
0.097506925
0.102953695
0.09059016
0.14138468
0.14323644
-0.13929704
-0.13236365
0.08415116
0.12769075
-0.10535899
0.05601943
-0.057388764
0.00054983736
-0.07496785
0.14803489
-0.0036839
0.096869536
0.0807264
-0.10424767
0.21132441
-0.0030263956
0.054904953
0.16057268
0.037005242
0.15985833
0.0239227
0.19661751
0.13698502
0.23395419
0.22825713
0.09439473
0.27822787
0.1776301
0.25766975
0.031820312
0.17184098
0.34955937
0.23984747
0.39025047
-0.16087165
0.093315125
0.26151115
0.29741472
0.3261378
-0.041747008
0.22967896
0.10758845
0.27558586
0.09226143
-0.20165099
0.27479535
0.11177954
0.11173242
0.020019097
-0.2824948
0.27181962
-0.06487106
0.02487252
-0.22126736
-0.12101688
0.08673109
0.046103097
-0.15349871
0.07056858
-0.101259395
0.13543138
0.12127898
0.19933157
0.06435379
0.18875757
0.023049952
0.10723007
0.18591014
0.09060731
0.19623134
0.06608717
0.098383464
0.18884005
-0.23194288
0.1205809
0.12699096
0.021780811
-0.041645054
-0.2670961
-0.031277932
0.3850782
0.20019759
0.06480519
-0.025966695
-0.011894587
0.43082908
0.2330633
0.12597407
-0.0673054
-0.13302146
0.50082564
0.15250507
0.2662159
0.22863042
-0.17518131
0.30696517
0.25767884
0.35665372
0.39966613
-0.08459208
0.34388736
0.25302
0.25293392
0.05921096
-0.14192548
0.31840834
0.17620888
0.33874193
-0.00024265918
-0.0601997
0.519974
-0.019128775
0.21010475
-0.0073732017
-0.035920095
0.1853897
-0.040711336
0.1481637
-0.2492705
0.04938907
-0.0035977676
0.0031206296
0.075129494
-0.21686614
0.1678555
0.18417828
0.0374394
0.30914864
0.020148758
0.17765513
0.18809974
0.042468052
0.09873114
-0.09472276
0.20011212
0.13283746
0.08249413
0.00011578355
-0.08245479
-0.040694192
0.22446045
-0.03258243
0.0821917
-0.016244719
-0.091071874
0.31416446
0.117318265
-0.02600877
0.107735924
-0.23642582
0.49717253
0.04695966
0.17482188
0.07445489
-0.19866402
0.46151343
0.17919035
0.029833619
0.16026515
-0.2530933
0.07518643
0.13987452
-0.041086596
0.13445185
-0.031529438
0.07431673
0.19452274
0.05926146
-0.012650383
-0.037730556
0.20421085
0.22570898
0.10175082
-0.17957291
-0.049513012
0.2655888
0.031252895
0.19698101
-0.19971108
-0.014685888
0.048340756
0.09675331
0.09684873
-0.30338028
0.08661048
0.08214736
-0.005343882
0.10950086
-0.10083797
-0.08931174
0.16855873
0.045787428
0.18907867
-0.033183966
0.13450927
0.017572176
0.02133408
0.014330035
0.023634523
-0.06346097
0.1359735
0.039836645
-0.06069152
0.050842334
-0.021230394
0.026908357
0.013602425
0.23672204
0.07424959
0.12203454
0.15149806
0.124297515
0.19953957
0.08700766
0.062830806
0.07057989
0.012761525
-0.015868476
0.075591795
-0.2648607
0.060677495
0.080219
0.032080457
-0.09203535
-0.046550516
-0.12735128
-0.09043959
-0.14121766
0.007993617
-0.06444481
0.04494939
-0.06602524
-0.12993117
0.041298795
0.03602489
0.028647264
-0.07811457
-0.19160636
-0.08938837
0.083250076
0.030836409
-0.0056502167
-0.055462476
-0.26520035
0.091174915
-0.04728745
-0.0010112345
-0.074583456
-0.16174437
0.03904868
0.024460653
0.14930792
-0.056635827
0.12451122
0.029714411
-0.09290944
-0.058983255
0.12258146
-0.18341784
0.11345691
-0.006262249
-0.13122326
-0.17829421
-0.3133444
0.07182524
0.10591543
0.185171
0.050571606
-0.30799717
0.15146224
0.026460873
0.07464981
0.24177188
-0.05986759
0.23969279
-0.034020573
0.103324756
0.20337592
0.092282645
0.29519767
-0.1069521
0.1403847
0.24252467
-0.005993733
0.12985002
-0.21007526
-0.03888394
-0.19590493
-0.09320051
0.004738825
0.08882429
-0.15270564
-0.19571914
-0.072003834
0.011479117
-0.08102692
-0.0628652
-0.0033848013
-0.024203718
0.10123529
0.08374781
-0.11471662
-0.26594946
-0.16108222
-0.0026904969
-0.109458745
-0.06754826
-0.061633956
-0.111414015
0.028486319
0.04169998
-0.09458755
-0.014337962
-0.032347206
0.10076639
-0.037840858
-0.02921051
-0.06464493
0.0075134537
-0.07036023
-0.12921591
-0.04811488
0.14457011
-0.38783753
-0.0093008755
-0.08548402
-0.022326153
-0.21549411
0.09874042
-0.10376076
0.091858424
0.010140591
-0.006015175
-0.4117743
0.08333656
0.059666816
0.018703341
0.13309836
-0.4154448
0.3597886
0.010244109
0.042259023
0.13848624
-0.057031177
0.45264888
-0.019061899
0.045982637
-0.016098224
-0.061171744
0.3652064
0.011795401
-0.20490785
-0.17006266
-0.026282964
0.15629472
0.09909424
-0.10491371
-0.07565199
-0.1416711
0.019691056
0.06003501
-0.11028595
-0.14668468
-0.010051589
0.03723667
-0.06691335
-0.06322267
-0.1589699
-0.0951685
-0.07273655
0.072188474
0.042176932
-0.08342761
-0.06188404
-0.032246903
0.1321286
0.12100544
0.14484154
-0.055537462
0.08940053
0.0141676515
0.20898035
0.08616573
0.11368634
-0.05714389
-0.13663986
-0.103683464
0.12462675
-0.51353925
-0.019102037
-0.09319031
-0.025957435
-0.25551048
-0.44419488
-0.23887579
0.08220078
-0.14535058
-0.13990407
-0.68537325
-0.0477084
0.046765715
-0.08104487
-0.033623505
-0.47404483
0.0667456
-0.011231927
-0.012624542
0.019455208
-0.11503988
0.22787777
-0.032654993
-0.14364813
0.014740936
-0.100094564
0.30722868
0.10253745
-0.07651438
-0.127269
-0.09977925
0.13091733
0.1108619
-0.05673719
-0.076910995
-0.12281025
-0.04750267
-0.028228309
-0.07677592
-0.09959033
-0.1451942
-0.04462609
0.017885758
-0.09732066
-0.06970297
-0.17643951
-0.20569842
-0.04865924
-0.014494124
0.0760808
0.1791621
-0.006201511
0.19534726
0.07294646
0.115060806
0.106222935
0.111224174
0.059703205
0.07668454
-0.031443052
0.09645169
0.13185506
-0.07646609
-0.15471213
-0.037859872
-0.46092537
-0.03051859
-0.041480426
-0.15123922
-0.20190373
-0.3486851
-0.17556682
0.00812236
-0.06510306
0.015574351
-0.31586102
0.047635846
-0.079762734
-0.15961798
-0.017154716
-0.2138634
0.035356063
0.01850023
-0.10179717
0.047376048
-0.04552486
0.05084821
0.06827571
-0.09319171
0.08440592
-0.042330194
0.22875124
-0.0363938
-0.19500546
-0.09834268
0.043570805
0.06616266
-0.09764864
-0.1482802
-0.10809863
-0.19207181
0.06455642
0.012840691
-0.10232999
-0.14401567
-0.092723526
0.16240047
0.06754509
-0.068384245
-0.08271307
-0.08153574
-0.12052072
0.13299815
0.04243961
-0.032253876
-0.0643136
-0.19389197
0.012730386
0.13766448
0.18759322
0.08539087
-0.03651312
0.01973241
0.117240496
-0.041820433
-0.04546243
0.029310584
0.09862408
-0.0246787
0.14356612
-0.5737036
0.14915487
0.040425725
-0.053396508
-0.05148352
-0.34534287
0.09892113
-0.020093644
-0.10977871
-0.14266036
-0.049448974
-0.12662685
-0.08541584
-0.06739023
-0.21484382
-0.09449804
-0.1690592
-0.011001032
-0.03810524
-0.3515198
-0.071095504
-0.15874855
0.044433974
-0.00038264412
0.08612917
-0.0569445
-0.041200522
-0.048949674
0.034575056
0.05950842
0.03962241
-0.053973287
0.06732458
0.015681861
0.11536147
-0.10348984
0.11306625
-0.04510832
0.08780755
0.12612052
-0.070340976
-0.094894655
-0.09474325
-0.083969
0.016630976
-0.041578613
0.032104615
-0.0060950345
0.065781705
0.04441543
0.036025967
-0.04505979
0.047980625
0.048760653
0.1258626
0.15347108
-0.023684574
0.09204487
0.07062415
0.12781951
-0.15359184
0.010217006
0.0904214
0.19220164
0.12306139
0.05584713
0.04202314
0.045504607
0.055879153
0.11375881
-0.06493396
0.0277251
-0.03805706
-0.0693355
-0.033993784
-0.27860537
0.0715669
0.056949407
-0.045333095
0.09716805
-0.1536945
0.3682541
0.03180525
-0.0012875281
-0.0287864
-0.2167328
0.37631541
0.10956916
-0.061955858
0.1082665
-0.09781394
0.23047704
-0.015007853
-0.039681815
-0.118638575
-0.1893884
0.403276
0.035643406
-0.0265711
0.04397676
-0.15274912
0.100434534
0.100310326
-0.018614123
0.12654814
-0.22536738
0.20635025
0.15718645
0.22171237
0.21947978
-0.050436568
0.24013121
0.080810845
0.03148645
0.19609378
-0.15504694
0.06606129
0.08729534
-0.009532503
0.014654796
-0.16193306
0.07050008
0.11433325
0.1710259
0.053069834
0.060047247
0.040274024
-0.079322465
0.031854738
0.018983288
-0.020180322
-0.052427813
-0.02180501
-0.061623275
-0.009290646
-0.02506192
-0.10906068
-0.088946134
0.057494134
-0.049610775
0.053213872
-0.08166154
-0.07662094
-0.045264974
-0.0012480097
0.0071751564
0.10911617
-0.07305477
-0.110443525
-0.08603178
0.16895129
0.08057711
-0.037153818
-0.008140421
-0.0014421758
0.17002521
0.012041994
0.017129222
0.022303846
0.04870333
-0.09771089
-0.037337907
0.08392618
0.03518798
0.14079179
-0.20432031
-0.021640457
-0.110984385
0.026367217
-0.08838015
0.56001616
0.016706463
0.0007271089
-0.0016164291
-0.011834302
0.25149766
0.04487768
0.04510981
-0.048134223
0.035290856
0.1702584
-0.08934494
0.037782233
-0.021038808
-0.15280373
0.058097575
-0.14949062
-0.039923854
-0.03885452
-0.06519569
0.029377364
-0.10002843
-0.10766926
0.04085623
-0.0018981923
0.0018604428
-0.059010305
0.0029954887
0.18475597
-0.083555534
0.04514887
0.04188935
0.016006457
0.068649404
0.03374027
0.0116498405
0.03312539
0.019865757
-0.01095165
0.033958152
0.11025286
-0.091506734
0.2341394
0.0057603023
0.052407946
0.1093407
-0.22249025
0.2503906
0.13690016
0.11315118
-0.01950761
-0.13387842
0.22726436
-0.09294557
0.026798163
-0.13272105
0.102287725
0.14410797
-0.20024337
-0.022234935
-0.10415629
0.08522499
0.198487
-0.12523699
-0.02965624
-0.05291524
-0.03819991
0.13117726
-0.13612705
0.19430965
-0.14176743
0.056820318
0.069333255
0.10011628
0.10898002
-0.102699384
0.07821797
-0.010075826
-0.07807459
0.07657585
-0.15155512
0.019780777
-0.10956587
0.015741875
0.032449182
0.0047705686
-0.060679484
-0.00420631
0.019542335
0.004210153
0.021606443
-0.023920637
0.06655172
0.1631526
0.045580372
0.3273507
-0.0871134
-0.01154428
-0.057786573
-0.008534045
0.41926494
0.030207854
0.09826892
0.044403203
0.09722237
0.24682714
-0.0065563144
-0.11582736
-0.051459625
0.054922707
-0.0056215865
-0.09386868
0.04613999
0.095939204
-0.034042522
-0.04240159
-0.000420127
0.054238413
0.07288871
0.09409967
-0.14689463
0.041270163
-0.015302433
0.06868518
0.031806204
-0.16614676
0.061632186
0.008547021
-0.13935782
-0.02248849
-0.2603108
-0.117235996
0.0015299796
-0.07169296
-0.01210686
-0.28134128
-0.08151307
-0.037328593
-0.22470193
-0.17780028
-0.2043141
-0.17825612
-0.17981164
-0.091423005
-0.21371326
-0.09702192
-0.123385705
-0.038607683
-0.13853425
-0.09550551
0.17882733
-0.17510262
0.10878238
0.15174492
-0.052350212
0.10819978
0.060816318
-0.01065462
0.059724182
0.23889334
0.14399035
0.2143948
-0.03165633
0.0017855704
-0.04130523
0.18253803
-0.08411259
-0.12334463
-0.07359816
-0.106265396
0.21469046
-0.04632112
-0.34764338
0.08616129
-0.015548661
0.27408206
-0.12233227
-0.20889983
0.15959772
4.7891983e-05
0.11950933
0.016791418
-0.16989918
0.11364064
0.03061801
-0.18511097
0.16897507
-0.03362648
-0.016585136
0.2974576
-0.28305754
0.34777623
0.045752436
0.075761035
0.19661875
-0.4345337
0.2514116
0.032294974
0.0045282617
0.06333917
-0.37575835
0.04849557
-0.22559364
-0.104222804
-0.10443736
-0.5447456
-0.20178221
-0.32525888
-0.1664643
-0.3599322
0.103846036
-0.61289
-0.1391139
-0.25460687
-0.4514164
0.06912124
-0.298889
0.16201262
0.29779205
0.013890083
0.28893536
0.12653543
-0.008551825
-0.015428333
0.23483476
0.075881004
0.13761067
-0.075569876
0.07041015
0.031635303
0.32322887
0.1254253
-0.27676743
-0.0013591435
0.06831458
0.2548708
0.022725742
-0.23981263
0.051858403
-0.02186781
0.40894014
0.11523523
-0.33157027
0.124916464
0.00060375774
0.096283555
0.1251272
-0.10510012
0.315269
0.08035963
-0.23858388
0.379892
-0.2331589
0.32620874
0.2329622
-0.22590782
0.2841443
-0.11947524
0.23866056
0.21069247
-0.1645412
0.30843937
0.020164408
0.10369728
0.07446333
-0.38742435
0.20224817
-0.21680601
-0.004661886
-0.090395324
-0.6172534
0.18471995
-0.74499834
-0.29552934
-0.32936454
-0.33822614
-0.47123855
-0.12958436
-0.4420187
-0.4294756
-0.32350364
-0.17806946
0.0643881
0.11606502
-0.01455446
0.40210265
0.030120442
-0.093104795
0.052255515
0.17915867
0.09498956
-0.02550832
-0.09093463
-0.022040917
0.14079782
0.17063102
0.06259221
-0.10161057
-0.014623238
-0.0012334203
0.14887065
-0.030092232
-0.1425789
0.04139805
-0.09766536
0.14995655
0.13143109
-0.28047946
0.08928209
-0.17424028
0.16572855
0.2208782
-0.026070781
0.23835221
0.00601358
-0.30032656
0.3826403
-0.12001492
0.2802706
0.14130113
-0.23505612
0.16498542
-0.14454158
0.1794941
-0.016610362
-0.27251554
0.16848888
-0.2267511
0.17602311
0.023918668
0.082662635
0.113082886
-0.25027612
0.056370053
-0.120894745
-0.14031762
-0.15731539
-0.3845647
-0.3322624
-0.12570846
-0.5793942
-0.25068483
-0.16638099
-0.2068902
-0.37836057
-0.5098376
-0.31835583
0.08952024
0.08036035
-0.05871728
0.20793314
0.059167996
-0.12789793
0.01067169
0.18764819
0.10325542
0.077025
-0.10321084
-0.10272005
-0.20300058
0.17558801
-0.25939646
-0.043022685
-0.10430787
-0.24151422
0.1909121
-0.23503374
-0.13668048
-0.21004677
-0.24126281
0.17569885
-0.32050988
-0.015683498
-0.033869244
-0.29181206
-0.06354201
-0.088363595
0.10198873
0.10060958
-0.064081624
-0.17498323
0.01950487
0.07442061
0.24754438
0.14860745
-0.17636676
0.06423344
-0.026054855
-0.07778043
-0.15368666
-0.02450023
-0.0794809
-0.1392948
-0.07493958
-0.028887495
-0.00095182424
0.124003366
-0.14055046
-0.19885176
-0.005945606
-0.18157084
0.25377268
-0.2548083
-0.056426603
-0.109465525
-0.19868492
-0.0385398
-0.090339504
-0.21960711
-0.31919095
-0.21303445
-0.1547193
-0.027819442
0.014691924
0.026654879
0.3811718
0.02473561
-0.18313481
-0.0960454
-0.026939629
0.16095722
-0.030362526
-0.23918132
-0.25855616
-0.16490102
0.115136296
-0.27257252
-0.077704474
-0.19515282
-0.2835555
0.4983042
-0.39766684
-0.042314123
-0.31183353
-0.15520212
0.32696623
-0.41372216
-0.0017989512
-0.11814908
-0.26075873
-0.054003336
-0.35002455
0.0178864
0.024487136
-0.02171234
0.04217568
-0.2946993
0.017379733
0.114579506
-0.057884492
0.11949901
-0.031295545
0.015424708
-0.060001656
0.043922402
0.06197884
-0.20176779
0.010279188
0.040881317
0.093364894
-0.07680242
-0.02928001
0.24713646
-0.03384125
0.08143103
-0.16151074
-0.032524906
-0.12485497
-0.086480506
0.033436228
-0.2638662
-0.18099783
-0.093741715
-0.3341031
-0.38806492
-0.0495509
-0.20662157
0.13804072
0.07772649
0.019601267
0.04789573
-0.055371437
-0.14322914
0.012845089
0.098632485
0.05120245
-0.07421502
-0.10530199
-0.12116036
-0.022587588
0.1321043
-0.18026279
0.020775763
-0.21170565
0.044340495
0.5951072
-0.14680612
-0.16213632
-0.31352052
-0.04690234
0.5131765
-0.3223734
-0.25990754
-0.3887819
-0.46503505
0.5534359
-0.5239799
-0.033342745
-0.008045339
-0.053465344
0.26561686
-0.27829146
-0.0897649
-0.07737141
0.021584518
0.08329277
-0.08552013
-0.071150415
-0.08874826
-0.06700364
-0.106955856
-0.008498924
0.008506992
-0.039648745
0.18475632
-0.100367986
0.06568777
0.08329008
-0.10987755
-0.030719409
-0.2613533
-0.012008569
-0.2820634
-0.23711793
-0.10074094
-0.26373833
-0.19253522
-0.1297349
-0.28147724
-0.20150974
-0.39644444
-0.22309937
0.0753684
0.10649361
-0.06607973
0.26646504
-0.04013383
-0.04244433
-0.15268993
0.06031987
-0.024629641
-0.027288355
0.017803345
-0.03640429
0.05929974
-0.056561843
0.0836212
-0.11979156
0.039538108
0.09911323
0.0017540078
-0.08639598
-0.16783941
-0.18098703
0.05841571
-0.110341765
-0.1528842
-0.26738212
-0.033532202
-0.0018983586
-0.009056449
-0.10383428
-0.15351613
0.059310045
-0.0404488
0.014396116
-0.18246469
-0.11495931
0.006161886
-0.23732384
-0.013986987
-0.17479466
0.11513084
0.057659984
-0.048260972
-0.10705812
-0.14758287
-0.07090738
-0.15836854
-0.0011139973
-0.13570063
0.048093606
-0.118276015
-0.13158733
-0.07531123
-0.10957437
-0.060897674
-0.15784365
-0.099424995
-0.3121166
-0.34212846
-0.30643156
0.017094139
-0.17394844
-0.16902329
-0.06549692
-0.042619374
0.033345997
0.044009216
-0.05139894
0.028973643
0.003978409
0.026045501
0.122210145
0.11084958
-0.07012741
0.088547885
0.06028347
0.08652006
0.16387081
0.21345468
0.103408106
-0.0034561886
0.03400727
0.036038008
0.0389147
-0.014142005
0.042181864
-0.024386328
0.08417146
0.051420778
0.0053266115
-0.044481087
0.005303366
-0.071636476
-0.12591596
-0.18712671
-0.030870704
0.08724072
-0.08384596
-0.012495827
-0.14259051
-0.019319855
0.03942443
-0.13533582
-0.0049317586
-0.15606001
-0.03825833
-0.14013378
-0.061087057
-0.11133379
-0.24925134
-0.017302172
-0.1205139
-0.16619614
-0.12915547
-0.10270317
-0.35646012
-0.109637186
-0.1933553
-0.08889986
-0.031241056
-0.19692993
-0.2357245
-0.30778965
-0.18593971
-0.3098955
-0.062341753
-0.037864387
-0.03938899
-0.021015769
-0.018414
-0.050733056
0.030376926
-0.034722097
0.015254445
0.04165016
0.09769339
0.19198002
0.019672494
0.22016978
0.107773416
-0.0072454256
0.12226504
0.17916687
-0.09671094
0.1227979
0.048906732
-0.04162388
0.13059807
-0.070966
0.08493843
0.05350567
-0.017781146
0.04314607
-0.066175036
0.2467838
-0.011816414
-0.027179318
-0.10805868
-0.11982912
0.09012457
0.083577916
0.020913351
0.047932558
-0.06097186
0.06215799
0.07313122
-0.09467956
-0.03514242
-0.0152615765
-0.13079867
0.00265242
-0.14526506
-0.15703602
-0.07354739
0.10309269
-0.07957038
-0.086042985
-0.28290775
-0.10103975
-0.24212956
-0.3046669
-0.16064863
-0.19862033
-0.09837456
-0.2758452
-0.0229154
-0.17299281
-0.11954949
-0.005164407
-0.13380502
0.073577866
0.014932193
0.05706415
0.34462243
0.054105133
-0.040504374
0.035822242
-0.10162288
0.09299257
-0.08430513
0.17410849
0.11505123
-0.045314986
0.2518914
0.055938877
0.339871
0.24134931
0.081162624
0.1362533
0.14056888
0.35293698
0.3865206
0.36510533
-0.054815523
0.30593428
0.22881375
0.23305719
0.41277584
-0.06663173
0.34822887
0.18331139
0.12062353
0.20121837
-0.038221847
0.5232253
0.019403579
0.0105408225
0.28655082
-0.09302592
0.5343439
-0.07295028
-0.1513119
0.10557206
-0.14410628
0.5063762
0.055730138
-0.039780654
0.124946736
-0.22085892
0.50043315
-0.11291508
-0.09600565
0.29031113
-0.24226122
0.12772793
-0.10509725
-0.13653235
0.047405384
-0.23184124
0.03364371
-0.08882368
-0.12106048
-0.039457705
-0.14376472
-0.05195829
-0.068892285
0.01471552
-0.12991872
0.023845743
-0.06176413
0.011541885
0.07030019
-0.0036816066
-0.08104742
-0.017601328
0.009404795
-0.019082915
-0.031951915
-0.11676148
-0.022832744
0.1357077
0.039362445
0.051296614
-0.14695884
0.09167288
0.2661275
0.08003549
0.121374585
-0.5067592
0.334567
0.30959108
0.15968467
0.36413625
-0.8331568
0.461377
0.19617271
0.09149633
0.35787195
-0.5629829
0.29872385
-0.009083737
0.086259805
0.14568835
0.1299574
0.231209
0.09479436
0.04112101
0.036433388
0.13669857
0.21263912
0.09530882
0.09830014
0.04475994
-0.027048962
0.32040194
0.08881485
0.03153387
0.14100514
-0.21287031
0.14232707
-0.014726508
4.3371732e-05
0.16553205
-0.22712234
0.08480892
0.08192731
0.02298022
0.023952166
-0.20355837
0.0701656
0.08360033
-0.05572481
-0.045415424
-0.010063279
0.027313706
0.09274056
-0.011506271
-0.017318308
-0.14410882
0.01518208
0.12794745
0.06572643
0.015776511
-0.12676418
-0.058179557
0.21128647
0.23057859
0.044060875
-0.5476248
0.1752905
0.190637
0.27167305
0.24462073
-0.11665597
0.2571842
0.1585222
0.21644868
0.1606449
-0.20659861
0.09145323
-0.080264226
0.21037482
0.16390415
-0.17884627
0.14167367
-0.28356048
0.07934304
0.10801458
0.02558503
-0.14477806
-0.11871631
0.032642487
0.036017146
0.08614725
-0.14495404
-0.18899831
-0.042951677
-0.055199716
0.09698474
-0.06641413
0.03599297
-0.083068535
-0.050754044
0.0040408503
0.074231565
-0.07638036
-0.06283346
-0.027864924
0.1397243
-0.0662792
-0.04983513
0.02444703
-0.17439355
0.29537153
-0.20692156
0.0500306
-0.08383236
-0.15891077
-0.014811352
-0.007015874
-0.061561003
-0.02480413
-0.014047683
-0.11655555
0.07791417
-0.0975141
-0.04568814
0.06217779
0.15283051
-0.073479176
0.06946824
0.01145716
-0.23621486
0.54293543
-0.027066195
-0.11943491
0.049692098
-0.17291723
0.123725265
-0.093180485
-0.22869715
0.10319859
-0.08510037
0.07460645
-0.013142007
-0.23202819
0.03079455
0.066209346
0.12423506
-0.030615453
-0.2369627
0.1525233
0.11107609
0.18112773
0.14904186
-0.21089074
0.08606149
0.19747801
0.13166061
0.001765658
-0.03773545
0.061137524
0.041847214
0.11084491
-0.21492814
-0.06238612
-0.09665029
-0.041186113
0.18675159
-0.3200817
-0.23430862
-0.33667275
-0.21617565
-0.1384805
-0.4254711
-0.19540125
-0.20445833
-0.31573892
0.017590769
-0.53207165
0.05066863
-0.14355595
-0.16561866
-0.24578461
-0.13128461
0.005549411
0.010252912
0.020657852
-0.1423845
-0.06364475
-0.14873028
-0.279277
0.050729655
-0.17030747
0.001715697
-0.1528504
-0.13491271
-0.14432825
0.032845553
-0.10676732
-0.31489536
-0.21027292
-0.18170047
0.13800314
0.09132186
-0.27972916
-0.036202904
-0.10470241
0.11992817
0.18698993
-0.2964206
0.08636202
0.026786318
0.057896297
0.1141159
-0.24716105
0.10840316
0.11938603
0.1814543
0.10424854
-0.16195014
0.18210982
0.13355285
0.5332166
0.05777073
-0.12833129
-0.14568241
-0.066581264
0.27479306
-0.22208753
-0.13312748
-0.17950548
-0.09593912
-0.10810808
-0.24437515
-0.07636109
-0.3201285
-0.14177236
-0.30111152
-0.4149144
-0.21230374
-0.3266623
-0.33642066
0.039946392
-0.633894
0.028220527
-0.24065305
-0.15244506
-0.33972558
-0.06519504
0.03523524
0.00858821
-0.008229128
-0.19005147
0.07852044
0.0062073716
-0.067496434
0.08442022
-0.31497803
0.19691974
-0.10266056
-0.045472004
0.04330485
-0.08390391
0.11671862
-0.15124585
-0.076347776
-0.041371748
0.08175636
0.20350645
-0.0793519
0.047353826
-0.14697902
0.059322003
0.07768967
-0.296085
0.07192578
0.027495654
0.10724669
0.19956738
-0.20094097
0.04378568
0.0468152
0.3036876
0.07658101
-0.1807509
0.2649266
0.17234674
0.40561512
0.08122384
-0.114150554
0.03587227
0.02653971
0.06896049
0.15118079
-0.0030835022
-0.16877356
0.026515968
0.020990148
-0.105952464
0.0228055
-0.21155833
0.013812005
-0.076669335
-0.09186181
-0.20162925
-0.39297312
-0.18593274
-0.4112378
-0.17744277
0.07989386
-0.16069964
-0.15507957
-0.239817
0.0087324185
0.15043662
0.06547946
0.030963242
0.22850251
0.039675802
0.024889639
0.091534175
0.14587511
0.12455272
0.14297584
0.08735042
0.05714752
0.031180691
0.30871594
0.030635333
-0.01777116
-0.029209157
-0.099222206
0.41138873
-0.1257753
-0.13034973
-0.1798025
-0.2126692
0.25406483
-0.05864996
-0.33819276
-0.12737568
-0.324104
0.24625413
0.06579789
-0.40376443
-0.090532094
-0.010071568
0.008872532
0.38262945
-0.40987805
0.084990025
0.11014904
-0.08406736
0.42505497
-0.141699
0.102950186
0.21056136
-0.004006219
0.16445133
0.18669888
0.051679004
0.2998112
-0.07705517
0.06761742
0.26272058
-0.077160574
0.16273995
0.008708619
-0.05764507
0.10865947
-0.20775394
0.02411106
-0.21877472
-0.011871082
0.043557514
0.046917487
-0.023337409
-0.3836999
0.10956041
0.10545768
0.07588395
0.04616518
0.20250335
0.019072054
-0.037252966
-0.12690087
-0.04069047
0.31962955
-0.076219685
-0.047318842
-0.04734614
-0.14641531
0.21255866
-0.024602475
-0.088375956
-0.089693725
0.054785132
-0.011571852
0.12071556
-0.051336262
-0.15083373
-0.13363357
-0.032063253
-0.01868224
-0.20112693
-0.11791111
0.001460988
-0.18104345
0.319263
-0.028523643
0.23660848
0.24671376
0.041365765
0.49188536
0.002476464
0.21863618
0.2445271
-0.10923413
0.2866485
-0.021115841
0.21536945
0.10600883
-0.07135484
0.12677234
0.022721156
0.11916308
0.09349794
-0.20703028
0.056569137
-0.073906094
0.02337936
0.04334486
-0.21280247
0.068454474
0.10453876
0.03589809
-0.116947524
0.099059984
0.07246515
-0.08144963
0.03745464
0.17334802
-0.13031085
0.17388691
0.015887698
0.10445569
0.0036919296
0.12445142
0.08069685
-0.079877615
-0.08754562
0.07718239
-0.3420003
0.10893816
-0.007805525
-0.050523832
0.13462679
-0.17150557
0.17838931
-0.001930401
0.038450215
0.11845337
-0.034188878
0.051797837
0.19748469
-0.080590226
-0.015562962
-0.044706304
0.14561836
0.16711372
0.06903286
0.0868821
-0.11557289
0.16953939
0.13511866
0.28678465
0.20867959
0.03414408
0.39330536
-0.03022976
0.15740356
0.15730457
-0.07711174
0.4207371
-0.03193465
0.18499814
0.12500784
-0.12950543
0.23751113
-0.08081435
0.12397046
0.06492312
-0.049257994
0.09549193
-0.11174713
-0.04692891
-0.029400082
-0.15622607
-0.0026246558
-0.025001194
0.07762575
-0.08124361
0.15053332
0.0008733728
-0.08774878
-0.057096224
0.21425015
-0.2949889
0.19794925
0.20562457
0.15075657
0.028540943
0.15956599
-0.008663172
0.078331605
0.006036239
0.15378551
-0.1039521
0.14876054
0.15975282
0.114827484
-0.022032011
-0.14711024
0.07635456
0.0830511
0.006167097
0.07307826
-0.20436285
0.008745504
0.25220612
-0.0025939757
0.03482224
-0.049978618
-0.014819331
0.18291338
0.15527405
0.17242953
-0.17150907
0.08361737
-0.05070161
0.17023191
0.118909
-0.0042948555
0.21963002
-0.057747744
-0.03274249
-0.009126021
0.024054015
0.25890118
-0.13668747
-0.06317846
-0.060765028
-0.031138847
0.062034186
-0.28721264
-0.119519345
-0.15822516
-0.08673019
0.1832006
-0.13866653
-0.05241044
-0.15329477
0.039654873
-0.0014668689
-0.17889951
-0.05509982
-0.076109566
0.034855608
0.12597772
0.09090298
0.104450434
0.101456545
0.16965476
0.19601566
0.10580635
0.12551779
-0.08381275
0.008113223
0.021519413
0.09355339
0.06754825
0.022354165
-0.15761037
0.1762557
0.14314313
0.12422822
-0.059824485
-0.034551937
-0.17353965
0.07850606
-0.10291773
-0.08892928
-0.1864798
-0.2277542
0.0712535
0.06606755
0.08531593
-0.06580777
-0.15536706
0.024219768
0.01597183
0.03234191
0.03636069
-0.03668647
-0.02724128
0.122824416
-0.0136749735
0.177668
0.11589451
-0.1855093
0.089035936
0.12256797
0.028314767
0.09989982
-0.1069891
-0.04639442
-0.04897874
0.043023456
0.021940744
-0.18405338
-0.0408079
0.004037969
0.19211113
0.093651995
-0.050072435
-0.047868714
-0.038871676
0.06358279
0.0031776677
0.16702855
0.0033262137
0.0068290685
0.22464517
0.20314978
0.18496253
0.087428436
0.012917868
0.15643568
0.085355505
0.1530083
0.12944198
0.08070192
0.06487021
0.08144135
0.11840514
0.17169635
0.16230913
0.04241582
0.16611308
0.07026483
0.075351134
-0.04177055
-0.23594426
0.030833991
0.015586495
0.052764155
-0.0134323
-0.057068378
-0.11224529
-0.051285204
-0.001964929
-0.013668162
0.1735846
-0.11073514
0.02726911
0.07569517
-0.023166286
0.09053619
0.08268759
-0.07100658
0.124470256
-0.007803107
0.11315305
-0.025250703
-0.0593463
0.108435646
0.1358513
0.026299704
-0.08637979
0.00064338243
0.050336987
0.06860304
0.13702458
-0.043250166
-0.052524332
0.15352148
0.20129034
0.061413884
-0.023616597
-0.13357478
0.0073498497
0.13908233
-0.055554476
-0.075738765
0.25550258
0.20866737
0.10727152
0.45037416
-0.036752995
0.16549827
0.026287567
0.084701754
0.41861945
-0.09246004
0.09686066
0.005101394
0.06697941
0.1461953
0.10648622
0.1421091
0.04869654
-0.021826932
0.049076878
0.11063116
0.11623663
0.042421103
-0.07270757
-0.030223958
-0.036403265
0.06546285
-0.025494358
0.01818578
0.065977104
-0.04048209
-0.02282145
-0.16130702
-0.15501969
-0.06804263
-0.031479657
-0.29067886
-0.2522197
-0.1682351
-0.088727966
0.08841215
-0.15945064
-0.261195
-0.2722865
-0.115649246
0.11496321
-0.018860513
-0.17340252
-0.23515213
-0.10728344
-0.060193606
0.054113828
-0.003907572
-0.019745193
-0.069905005
-0.07438795
0.11320862
0.060015813
0.0071364357
-0.11236086
-0.0046721497
0.16003034
0.09466933
0.32038382
-0.1069603
0.01800366
-0.010048257
0.0027988637
0.14686409
0.020826474
0.016447278
-0.114880435
-0.11308666
0.07847837
-0.21306936
0.0841043
0.103418574
0.09517533
-0.011308623
-0.20392093
0.006584373
0.06196436
0.044314973
-0.015472499
-0.13856989
0.020889066
-0.042163786
0.1010263
-0.0345052
0.014934699
0.065842986
0.10048398
0.079368845
0.15186232
-0.050795723
0.14833052
0.016108928
0.0758199
0.1626712
-0.14464082
0.09427457
0.20521569
0.32691514
0.10046468
-0.15370418
0.18800779
0.27779827
0.26455268
0.17113931
-0.13758901
0.114981286
0.34013444
0.2800731
0.059772164
-0.026747428
0.21734802
0.30661747
0.19428678
0.2792216
0.0874907
0.23531167
0.31270364
0.37718987
0.41864973
0.06920458
0.26599705
0.21645708
0.34221563
0.3698205
0.14899823
-0.022909017
0.09987608
0.08528696
0.043353908
0.2844576
0.038602334
-0.009726684
-0.035535622
0.08301045
0.18459763
0.088082954
0.07302122
0.20493442
0.21411282
-0.10663828
0.12985131
0.16595204
0.14582747
0.09742489
-0.09582235
0.13911651
0.08505436
0.18284836
0.16548468
-0.16772163
0.15497102
0.026858725
0.123456135
-0.015661959
-0.123188004
-0.010393979
0.051177856
-0.05437841
0.020301409
-0.07353203
0.06032415
-0.107167155
0.04599112
-0.07430698
0.08174973
-0.0118601415
-0.044814013
-0.048394773
-0.06345612
0.1087181
-0.13526419
0.011633819
-0.055446018
0.0041628326
-0.030611621
-0.011168595
0.12758674
-0.0069126184
0.025140591
-0.08439676
-0.07332441
-0.054890253
0.06098073
-0.08919491
0.23462754
-0.08319054
0.033347163
0.06731158
-0.04935674
0.17554978
-0.114331596
0.12832594
0.10113155
0.047830094
-0.14462298
0.026014296
0.07177017
0.17364164
0.12861255
-0.18628922
0.15908124
0.1677551
0.12173313
0.09689633
-0.15470736
0.21577927
0.10625189
0.13976462
0.26642227
-0.23827095
0.18717252
0.16725166
0.18863188
0.16105512
-0.2506083
0.23104781
-0.06945471
0.09268251
0.15323807
0.022770405
0.0064243046
0.06866441
0.2910278
0.23238948
0.07297534
0.16289793
-0.07786283
0.07682451
0.32575414
0.07372029
0.18199743
-0.010506063
0.19038223
0.22930181
0.021168243
0.01755889
0.26292557
-0.034905892
0.16442108
0.083649896
0.024647273
0.17119029
0.047969628
0.1731466
0.039161205
-0.011640219
0.20718698
0.035690024
0.025225047
0.16287215
0.08869354
0.1620197
-0.14623122
-0.11419743
0.28353545
0.23030113
0.0487714
0.12206287
-0.0085731605
0.040678572
-0.010021608
0.06396976
-0.00992247
0.06348406
-0.24513598
0.13815583
0.08567502
0.110513516
0.056721345
0.06817479
0.06103065
0.095853604
0.11500906
0.15640254
-0.11029391
0.09977521
-0.101149075
-0.025329694
-0.038308054
-0.091970295
0.0008818331
0.051615875
-0.041024487
0.15846309
-0.020287985
0.18668354
-0.0922493
0.11291364
0.025515905
0.048445947
0.041666243
-0.022442346
0.274036
0.12785748
0.21441321
-0.007235729
0.23550013
0.10476599
0.17774644
0.05827086
-0.050585974
0.2498452
0.048640553
0.15591839
0.019043993
0.023287661
0.37272024
0.109844014
0.039103664
-0.14081718
-0.0041812323
0.3840932
-0.03935969
0.018267479
0.05636883
-0.015956314
0.24787776
0.05540322
-0.015734041
-0.13574483
0.009405258
0.06516129
-0.008054568
0.023863615
-0.285739
0.12738791
0.1314362
0.14521444
0.26528996
0.11978101
0.27258605
0.042998545
-0.056845803
0.07714443
-0.09516698
0.05459045
0.029855749
0.18852392
0.025133695
-0.17813028
0.055127762
-0.1614321
0.006499161
0.028420115
0.059494276
-0.06235925
0.006040746
0.042402226
0.06945807
0.15075682
0.032464836
-0.04827333
0.04557859
0.06537574
0.06377017
0.010646229
0.055259667
0.01474099
-0.0135828825
0.27606124
0.025895817
0.16887319
0.035452947
-0.014174489
0.04810993
-0.08072184
0.23534349
-0.041477334
0.018885313
-0.08742453
0.0184034
0.16596094
0.008461444
-0.0696183
0.057028238
-0.008485273
0.069100834
-0.020594439
-0.006864566
-0.07418345
0.1770688
0.07970069
-0.12683567
-0.2321386
-0.063824005
0.020763163
0.15593804
-0.054467328
0.04249793
-0.09434176
0.117820315
0.2323609
0.21244651
0.39303723
-0.13951617
0.509158
-0.070655674
0.10683281
-0.008798274
-0.06417857
0.042475384
0.052315146
0.12315083
-0.06810124
-0.1272526
0.06317446
-0.09730999
-0.10260282
-0.047562808
0.033397924
-0.10815637
-0.025062969
-0.10588276
0.03452463
0.0991602
-0.0131645035
0.008488028
-0.022139035
-8.223104e-05
0.18107957
0.10074191
-0.0335659
-0.009332292
0.25152305
0.18531947
0.07651615
0.11183025
-0.031327736
-0.038177792
0.12133994
0.02687131
0.017068489
-0.108286545
-0.094269894
-0.04293719
-0.018170025
0.15870196
0.065738045
0.11905828
-0.09791465
0.21174137
0.093343355
-0.042219535
0.18224585
0.047801495
0.34790137
-0.14422277
0.009774466
-0.041855548
0.094352625
0.06918692
0.030794574
0.044893555
0.020785633
0.07598784
0.07826844
0.39631158
0.34535298
0.24393976
0.24399613
0.24302523
-0.17287078
-0.15045956
0.0034677156
-0.05486589
-0.061023917
-0.04705408
0.0023146402
-0.16488463
0.046261184
-0.023890104
-0.08706868
-0.05022583
-0.20927696
0.09254135
-0.29287136
0.053718418
-0.13618301
-0.19078253
0.106279664
-0.0043629156
0.09696238
0.007954069
0.047860164
0.15320252
-0.03632832
0.18354057
0.093639016
0.22899081
0.24941598
0.11640351
0.07389737
-0.13447306
0.1325291
-0.10389955
0.12165777
-0.047461025
0.033751655
-0.027394755
0.019691166
0.08777626
-0.00053409394
0.10133297
0.23404169
0.23238404
0.32258657
-0.22918275
0.005786104
0.27476665
-0.27185285
0.2930256
-0.37613395
-0.051029712
-0.08552008
0.36929056
0.01526009
-0.23291945
-0.081065886
-0.21340409
0.6371917
-0.07470744
0.24866843
0.15497144
-0.04268586
0.5722146
-0.13573572
-0.22960228
-0.0348657
0.17660101
-0.28645822
-0.02951871
-0.07147895
-0.13259706
-0.16974792
0.11666919
-0.115835585
-0.15451512
-0.21085222
0.0384429
0.3577121
-0.04206179
-0.0021588462
0.11944301
0.021300767
0.23272666
-0.24423303
0.08418169
0.067224585
0.07987198
0.2574622
-0.14847305
0.4172091
0.45694727
0.32156324
0.46805438
0.07950455
0.089181386
0.19337353
0.38776702
0.006457193
0.06676572
-0.08752098
0.031942394
0.105607525
0.05208355
0.09926662
-0.22496301
0.058701325
0.049364213
0.014073059
0.05840798
-0.21495944
-0.11183793
-0.028904572
0.1196783
-0.20040913
-0.28537008
-0.12522206
-0.27209696
0.3469649
-0.23542443
-0.30968487
-0.2741166
-0.31013486
0.2866983
-0.22541118
0.063992664
-0.14713436
-0.18851392
-0.073615395
0.11502966
0.18349537
0.18484586
0.19697407
-0.57744044
0.24605319
-0.02860552
0.04316575
0.23088968
0.03987323
-0.034652267
-0.14080065
-0.032560658
0.13937365
0.5355584
-0.053253874
-0.1516588
0.07815045
-0.062125802
0.49761128
-0.16512583
-0.014699934
0.08272821
0.17027621
0.28721496
-0.11804191
0.15328896
0.30159146
0.23080988
0.14719017
0.02582572
0.027381344
0.25664824
0.21616378
0.14068626
0.11190105
-0.075201854
0.064298816
0.016522363
0.17677937
-0.08700197
-0.20187102
-0.06867659
-0.1818953
-0.003075257
-0.200328
-0.15807484
-0.18388842
-0.13639224
-0.32431668
-0.3611573
-0.2848565
-0.16429995
-0.050092474
-0.15957113
-0.029706085
-0.062687635
-0.03893024
0.08548896
-0.23894951
-0.058372475
0.16949505
0.06394729
0.113952234
-0.18918268
0.112668425
0.34309265
0.26254934
0.21314946
0.1412788
0.24924466
0.15870576
0.14212632
0.1942055
0.16318464
0.16875045
0.029163271
0.041777283
0.32035035
0.22216561
0.21759632
-0.08780754
-0.008398217
-0.0048225196
0.32181907
-0.016929321
-0.19249779
0.036637418
0.16074516
0.3320557
0.10682108
-0.024213808
0.2768458
0.08097956
0.41960865
0.106606014
0.055192385
0.16936533
0.15281849
0.094008505
-0.048907284
0.0997219
0.09372775
0.19199668
0.12348963
0.0053576455
-0.05409883
-0.10990582
0.012236905
0.02238202
-0.2387955
0.018461106
-0.096059315
-0.18598518
-0.23407896
-0.13472572
0.035445876
0.023439487
-0.0825968
-0.22018053
-0.08898305
0.12839483
0.051621374
0.1133509
-0.18974233
0.1992377
0.24947973
0.21630993
0.14605865
0.12404058
0.08092685
0.18287508
0.18070418
0.17270568
0.118134566
0.16181794
0.25271553
0.120113134
0.28067714
0.1928565
0.112579316
0.17326415
0.10542269
0.0735169
0.04824912
0.13397245
-0.11358137
-0.006377151
0.0376491
0.077006854
0.01106265
-0.28192282
-0.060353834
-0.044327024
0.100539625
0.09552877
-0.14799146
0.031980943
-0.28538254
0.003216583
-0.059316397
0.032657284
-0.017495783
-0.030771425
-0.08841427
-0.1678632
0.17776544
0.17083031
0.23509187
-0.021258224
-0.0046347757
0.2716261
0.18271472
0.23901607
0.07155808
-0.018188655
0.34639505
0.020198595
0.075110644
0.025615305
-0.048559137
0.21022008
0.18438782
0.030088935
0.173245
-0.100552596
0.18441351
0.091657296
0.22934741
0.24959914
0.063874796
0.22978252
0.07923734
0.10337419
0.22481713
0.20900634
0.11820279
0.18875113
0.16352558
-0.1887588
0.21651113
0.10622288
0.15679334
0.10031157
-0.054519128
0.19693753
-0.025254928
0.002652707
-0.015793681
0.17875211
0.01549674
-0.04568797
-0.07642582
0.06656119
0.23148486
0.058314852
0.01719532
-0.02322517
-0.14043878
0.08053449
-0.03952998
-0.26852503
-0.055210102
-0.053607736
0.07057586
0.08529115
-0.14952268
-0.060948197
-0.08258063
-0.061870273
0.055043213
-0.0028407003
0.08617734
0.026023818
0.19272614
0.12353604
0.0869065
0.0050171604
-0.022310035
0.015194399
0.11778501
0.20854057
0.088896796
0.064648084
0.109186284
0.08326602
0.122820534
0.06391682
0.0464589
0.01760982
0.21858865
0.110765696
0.1318703
0.27969772
-0.04596511
0.14902063
0.1363499
0.10455997
0.05565465
-0.42676282
0.0519809
0.26414615
0.13739367
0.24915661
0.14002714
0.22409321
-0.017966863
0.044253446
0.047646888
0.04079054
0.04497473
-0.02715807
-0.026373101
-0.1553384
0.18932788
-0.211626
0.04065854
-0.06937324
0.07265863
0.10814967
0.0036507598
0.03466766
0.03005723
0.13993679
0.05366167
-0.062848225
0.031094266
0.09993054
0.120254576
0.17894004
0.119819514
-0.024388703
0.025023947
0.08991034
0.049544066
0.15651256
-0.033575892
0.1770937
0.15369955
-0.010177106
0.1893137
-0.0018039215
0.15291563
0.14337143
0.015219195
0.16500899
0.09252634
0.14204165
0.11758832
0.119043864
0.24649009
0.31350434
0.19187939
0.27496615
0.22676763
0.1552188
0.2746078
0.2795547
0.22874105
0.14483163
0.26966807
0.057032328
0.1550803
0.16918667
-0.38267457
0.11155606
0.14895007
0.106012605
0.06604912
-0.0179866
0.1864708
-0.027457573
-0.031852093
0.044739954
-0.40433455
0.09581058
-0.106631346
-0.14460191
0.11268142
-0.24206047
0.03433533
-0.20429732
-0.1155838
0.03884039
-0.0045127464
1.091024e-05
-0.10359652
0.01522744
0.22368002
0.0074498756
-0.0966316
-0.08746701
-0.06777928
0.10890216
0.10226836
0.033460494
-0.015739333
0.07281161
0.16022876
-0.09529231
0.0900898
-0.16082036
0.06195838
0.012887532
0.0010962632
0.19282638
-0.09249643
0.057365138
0.03605463
-0.023589041
0.25688216
-0.06062276
-0.016606985
-0.11544647
0.1070187
0.0072065103
0.1051091
0.10698965
-0.06954312
0.17270668
0.018317806
0.17915939
0.09675947
0.08275435
0.20105752
0.20586416
0.07910266
0.17298916
0.22195466
-0.10443923
0.19052652
-0.09263751
-0.017446302
0.05550019
0.021063128
-0.08691881
0.0020091804
0.04803008
-0.04955375
0.1513239
-0.1041398
-0.14586014
-0.14317814
-0.00021188623
0.08466318
-0.056809086
-0.29852742
-0.30687344
-0.26986825
0.3312923
-0.38846207
-0.24438117
-0.22400782
-0.37074536
0.61902505
-0.4169201
-0.3041618
-0.3450041
-0.4185235
0.42595598
-0.35389736
-0.249279
-0.27616662
-0.37595037
0.4107835
-0.39389956
-0.08536868
-0.15516508
-0.16986682
0.03544658
-0.0690349
-0.134105
-0.07737089
-0.040536374
-0.052606374
0.07352203
-0.048334096
-0.026733622
-0.12507692
0.1310327
-0.07717197
-0.15252379
-0.1867002
-0.11739364
-0.016627232
-0.13692349
-0.086639516
-0.023618946
-0.042100023
0.058939695
-0.121676594
-0.08363256
0.03126521
-0.08829331
0.052363176
-0.0059239217
-0.048647467
0.052221693
0.0136950705
0.010148282
-0.029543215
-0.067578316
-0.061543453
0.00491513
-0.2580962
-0.08514138
-0.14994638
-0.11217928
0.027712677
0.016968463
0.038073946
-0.2187036
-0.12634942
-0.23362677
0.20957953
-0.03691034
-0.1720302
-0.150915
-0.2576799
0.33696
-0.027003353
-0.041984092
-0.16888423
-0.14187214
-0.049412347
-0.22095619
0.11505488
0.040140126
0.07267948
0.041455805
0.00012945128
0.3603214
0.11955959
0.078029156
0.0031960374
-0.04216601
0.14714941
0.041683167
0.0826906
0.18680477
-0.023560835
0.24959444
0.09501199
-0.051871225
-0.059673123
-0.072275504
0.1347513
0.109629005
0.11357363
-0.3098261
0.08977702
-0.04101536
0.098836236
0.060116258
-0.17490596
0.1265077
-0.051237985
0.095470205
0.034058098
-0.019366594
-0.002827008
-0.02194762
0.011692186
0.035980996
-0.17266321
-0.048272923
0.10077736
0.04091902
0.0053027784
0.056533728
0.0048593986
0.22697596
0.1189083
0.30053443
-0.055536747
0.17297745
0.480689
0.26004314
0.22084758
0.22902015
0.11260518
0.54018635
0.15022543
0.05936433
0.08546745
-0.023260377
0.57173204
-0.2771128
-0.19163974
-0.14837797
-0.10780382
0.23971906
-0.39177102
-0.39968678
-0.20990317
-0.31876877
0.31593263
-0.35161552
-0.31872493
-0.14398621
-0.117695495
0.094065875
-0.21679485
0.008520275
-0.094865166
0.10612248
0.16195342
0.026641138
0.06985445
0.028337723
0.19715084
0.21746337
0.06412874
0.11533812
-0.15482603
0.24260494
0.13618226
0.107614286
0.13902168
-0.092289686
0.30707777
-0.01499436
0.003917534
0.036956877
0.100312375
0.10093295
0.09509688
0.13077812
0.0410062
-0.13775821
0.025687968
0.28726497
0.23101828
0.109328136
0.09415844
0.09018548
0.35480514
0.30654126
0.24595006
0.09436323
-0.090466104
0.37906224
0.29935464
0.13617226
0.08767349
0.096973896
0.4109124
-0.00088920275
-0.0046024406
-0.31516904
-0.08082534
0.36778554
-0.21747616
-0.1288351
-0.39023075
-0.1651931
0.08088964
-0.4030968
-0.23958968
-0.11457342
-0.2563687
0.06001101
-0.3397799
-0.22367492
-0.122913465
0.10180502
0.07594449
-0.15268287
0.00022318534
-0.18132433
0.18498155
0.1383033
-0.050705764
0.025425648
-0.14444387
0.25297734
-0.016484475
0.102639765
0.021078255
-0.1716823
0.34811512
-0.11577729
0.08859173
0.14055811
-0.0010845058
0.4777887
-0.11274081
-0.026041262
0.1259775
-0.032457624
-0.062224384
0.1436736
0.045021825
0.13793181
-0.12036765
0.12915438
0.0066146976
0.20405622
0.122748405
0.11427851
-0.087844156
0.07172266
0.13930061
0.13107416
0.033076152
-0.0624658
0.1793743
0.119027175
0.13965507
-0.12631227
-0.0956379
0.105441876
0.021923147
0.07257469
-0.21827163
-0.027410384
0.17716219
-0.15348706
0.10158485
-0.17685233
-0.036236655
-0.14491802
-0.14606014
-0.21965411
-0.06642713
-0.19314006
0.28149015
-0.3284857
-0.26387477
-0.21542841
0.18768238
0.19740017
0.015690029
0.08760638
-0.23330599
0.24156041
-0.109080054
-0.12757795
-0.073889054
-0.2371732
0.11758911
-0.30728674
-5.4106364e-05
-0.08438438
-0.24701886
0.10970271
-0.37498644
0.04400979
-0.12623478
0.41068923
-0.08153975
-0.16443403
-0.18315895
-0.40399745
0.21416272
-0.33466557
0.08078966
0.16897269
0.13375084
0.12534416
0.046835016
-0.023629852
0.15432175
0.08870459
0.3302074
-0.05996719
0.0033983064
0.20079458
0.06701583
0.09324901
-0.07591291
-0.095086746
0.06451981
0.12649556
-0.0346541
-0.02578293
0.097187825
0.20926392
0.24963236
-0.04713981
0.024563977
-0.1138661
-0.07695374
0.033423554
0.02340789
0.106516175
-0.053946875
-0.26381066
-0.47461718
-0.060085177
-0.28509742
0.38419685
-0.27231634
-0.18509007
-0.41881993
0.115681514
0.07580403
-0.02762661
0.20358501
-0.15242016
0.108238846
-0.33287185
-0.18476956
-0.21377513
0.1892755
0.23104863
-0.46703148
-0.33517915
-0.39022204
0.0061043873
0.159945
-0.65060097
-0.18244986
-0.4587037
0.30875063
-0.2958311
-0.06444927
-0.4248448
-0.438778
-0.12888174
-0.038879577
0.19528629
0.14508416
0.022587916
0.2210697
0.14498529
-0.12583986
0.10937633
0.09339302
0.07774942
0.08102934
-0.081889644
0.14891453
0.114007264
-0.023563774
0.08924453
-0.14602064
0.017696334
0.1045913
0.111996874
0.17399012
-0.13610351
0.15179728
0.04563327
-0.19290742
0.25766167
-0.38345742
-0.09840327
-0.012213444
0.0011052734
0.035644986
-0.18461835
-0.54125476
-0.4834158
-0.27850154
-0.10325075
0.14980944
-0.17319772
-0.19092506
-0.3545038
0.004172783
0.13946037
-0.018094376
0.09568553
-0.12027894
0.23303524
-0.15432955
-0.05650951
0.23039627
0.114229456
0.37598783
0.035733394
-0.054323483
0.063466966
0.040342424
0.33646193
-0.4695604
-0.14135088
-0.004040434
0.46159667
-0.051640246
0.10061827
-0.14400224
-0.2569122
0.3171734
-0.06704484
0.1912465
0.1438774
-0.032477655
0.21990038
0.139548
-0.092502445
0.030394137
0.16807525
0.09809058
0.12520769
-0.1365741
0.033062212
-0.056385107
0.19128515
0.06264138
-0.16555814
-0.08333979
-0.011565723
-0.22855495
0.33663976
-0.32213783
-0.026298994
-0.1454396
0.003488312
0.2825438
-0.39330876
-0.26671192
-0.2772409
0.016766472
0.01623541
0.06702347
-0.1717446
-0.22404373
-0.3137188
0.0817625
0.11686628
0.02889571
-0.026546737
-0.015153774
0.028959302
0.0065604225
0.18817829
0.23898329
0.15420046
0.22177128
0.087139495
0.11438005
0.2200404
0.2745379
0.3003014
0.04799801
-0.037839785
0.18007275
0.34889325
0.38609296
-0.059905604
-0.05438481
0.0073775966
0.32703307
0.0085772835
0.012520525
-0.26207447
-0.22302368
0.3795958
0.116477475
0.14433804
0.1272667
0.099780165
0.2834485
0.062072087
-0.06031293
-0.10245781
0.19711947
-0.18497337
0.123931155
-0.13879561
-0.060356926
-0.10624134
-0.015851984
0.235816
-0.21530506
-0.04290784
-0.23528662
-0.04574823
0.18839179
-0.3126132
-0.20579386
-0.31835717
-0.048504274
0.22895046
-0.067464
-0.115431175
-0.26835775
-0.16970308
0.12688571
0.122101806
-0.10077202
-0.12166552
-0.14973404
0.08072036
0.024805764
0.09978074
0.068536356
-0.018465752
0.023458088
0.1358541
0.010833612
0.09501851
0.22368255
0.060606167
0.104906686
0.12851095
0.23159373
0.45863625
0.001219819
-0.28440064
0.040223535
0.26615024
0.47259572
0.09302235
0.025653634
0.00038443168
-0.025370967
0.4307204
-0.12094267
-0.09040109
0.03966715
0.094554715
-0.119324565
0.043709733
0.06170203
0.1157035
-0.0016895243
0.42772052
0.036107916
0.05586113
-0.041862722
0.18441938
0.14927647
-0.073184
-0.3488805
-0.10949399
-0.06765471
0.13874213
-0.1636801
-0.17170602
-0.14725702
-0.24095516
-0.085268624
0.08863477
-0.24627864
-0.13058718
-0.35876924
-0.2562987
0.28173825
-0.0912924
-0.1005793
-0.24667661
-0.28813553
0.17335509
0.13237855
-0.09459271
-0.07079201
0.098500215
0.08675918
-0.019701969
0.049170386
0.03768244
-0.0033583702
-0.12964268
0.07665555
-0.11967833
-0.15607008
0.111807205
-0.19935226
-0.059482895
-0.04404233
-0.17220005
0.33575168
-0.34558332
-0.43281513
-0.22416355
-0.11107439
0.40438408
-0.2897042
-0.11911262
-0.24519639
-0.3020792
0.29298362
-0.15031786
0.07095645
-0.009487032
-0.087784335
0.3793543
-0.040117707
-0.0076647224
0.0025242053
-0.09977188
0.2829029
-0.11612851
-0.20638596
-0.07729818
-0.15132044
0.00026816252
-0.05677707
-0.40092057
-0.35480514
-0.22167388
-0.33084995
0.058876637
-0.2877759
-0.058052406
-0.11623369
-0.5082598
0.080622435
-0.20936376
-0.028153459
-0.1629717
-0.29895663
0.0038245288
-0.030703051
-0.015631938
-0.15179256
-0.14258349
0.055350006
0.023846684
-0.06420521
-0.046545956
-0.10150656
-0.10137614
0.14146525
-0.13917495
-0.21119061
-0.15837617
-0.10868496
0.21650241
-0.104126826
-0.045098856
-0.02033731
-0.19451423
0.039536852
-0.1839265
-0.15059824
-0.001931678
-0.33938542
-0.025955345
-0.019075233
0.007370986
0.19752915
-0.2685394
-0.06774435
-0.15674187
-0.072212756
0.007181421
-0.08398248
-0.10177774
-0.100505844
-0.031146154
0.043410845
-0.030156279
-0.00044555272
-0.051389948
0.029671969
-0.10123689
0.05030637
-0.09505894
0.005389699
0.0005983912
-0.312566
0.056354098
0.0098105185
-0.08097707
0.12544534
-0.40401563
0.10376337
-0.104345106
-0.06601448
-0.14648914
-0.3219211
-0.051271815
0.02924086
-0.05387077
-0.114884764
-0.104465954
-0.038112592
0.00026972202
-0.093067005
-0.021284787
-0.30193755
0.12333727
0.08495691
-0.12799273
-0.18242963
-0.07794253
0.13326833
0.28214675
-0.12448498
-0.047811184
-0.149054
0.008805102
0.20538878
-0.0077091306
0.008515059
0.032114603
-0.08098227
0.14853157
0.008217338
-0.07031251
0.049462263
-0.12020438
-0.008309741
-0.18399572
-0.09402229
0.11698111
-0.07898891
-0.13858482
-0.07680432
-0.07515946
0.046659794
-0.0073949564
-0.01573184
-0.08755017
0.054344047
-0.066508204
-0.06875157
-0.06647835
0.036055923
-0.030437158
0.18260394
-0.026536645
0.08006184
0.047674336
0.046629872
0.06665663
-0.07630372
0.024346108
0.035567027
-0.00066191755
0.11698388
-0.10252044
0.11329255
0.0059521454
-0.1575747
-0.07890842
0.0062621157
-0.046861816
-0.17037795
-0.19172807
0.029755712
0.025105454
-0.1175201
-0.109763965
-0.3147065
-0.00071523455
-0.0029973474
-0.004423355
-0.071456045
-0.19142538
-0.015166365
-0.11848933
0.009768965
-0.022754498
-0.19757314
-0.014697196
-0.021229336
-0.16555499
-0.025947895
-0.14727132
-0.03738453
0.03314952
-0.19041653
-0.21014212
-0.19607687
-0.020706156
-0.23937649
-0.12060242
-0.19356702
-0.19451086
0.08184803
-0.14425792
-0.13885091
-0.067041695
-0.024229055
0.012375587
0.004642785
0.039184377
-0.008514207
0.021307763
0.19326828
0.009783287
-0.043164358
-0.053939532
-0.11660528
0.13793595
-0.12525572
-0.085346624
-0.10110599
-0.07773535
0.1237422
0.0428183
0.065611124
0.1520922
0.027392693
0.020767346
0.14049414
0.16181038
0.21289337
0.24242191
-0.35373
0.29318917
0.37925792
0.34122702
0.3082216
-0.70328647
0.3278171
0.31981155
0.22965313
0.38221574
-0.6505278
0.31014013
0.15612996
0.2573054
0.25338912
-0.060099278
0.27257547
0.22858717
0.23736052
0.1804543
0.09569125
0.3281996
0.22581224
0.22535351
0.08299467
0.008077778
0.014317852
0.1238957
0.14714469
0.009345649
-0.083522476
-0.10243067
0.009000935
0.0679048
0.13820262
-0.35047224
-0.073476695
-0.014196093
-0.0027539327
0.05049692
-0.21005891
0.098402224
-0.021980088
-0.01881521
0.02600408
0.045553144
-0.062473215
0.01757123
-0.073385365
-0.09407658
0.09722981
-0.116218664
-0.042026572
-0.053878587
-0.04845662
0.29685813
0.0032821114
0.1032389
0.13489935
0.12329404
-0.5233877
0.0038418793
0.082318574
0.1564078
0.2469879
-0.11879109
-0.0014391319
0.17045198
0.19898611
0.0049258056
-0.14763632
-0.0810114
0.1562845
0.14498992
0.107111834
0.011365935
0.0019196977
0.11305047
-0.023315065
0.11379386
0.15941367
0.048477523
0.113588
0.01739508
0.012393468
0.16769126
0.023988571
-0.13483287
-0.109060526
-0.06535818
-0.17973958
-0.053420212
-0.19690107
-0.271961
-0.070909224
-0.003940472
-0.08412658
-0.1808236
-0.1316337
-0.09966269
0.03161486
-0.19393393
-0.2188121
-0.09932796
-0.14164396
0.1668141
-0.08221423
-0.052585848
-0.08016213
-0.18785492
0.08737125
-0.14821391
0.007645007
0.0995334
-0.08811247
0.07004096
0.09105447
0.04315851
0.017307993
0.15736501
-0.04644911
0.16767348
-0.17715007
-0.015803188
0.060881138
0.16951804
0.050041497
-0.13200283
0.012270759
-0.061624918
0.15763727
-0.009603485
-0.070204906
0.07158935
-0.06071832
0.12527601
-0.011857115
-0.013179257
-0.03444172
-0.08180373
-0.07782331
-0.05551115
-0.014102726
0.066148534
-0.017602146
-0.042446125
0.0021121625
-0.08220401
-0.0039009997
0.11157427
-0.029184783
0.014389723
0.0030296755
-0.065769225
-0.13813193
-0.043870833
-0.12987013
-0.07369483
-0.04637519
-0.17671011
-0.035316955
-0.26996988
0.19050848
-0.12718488
-0.14695865
-0.3456035
-0.29052702
0.017185355
-0.12907013
-0.06893143
-0.0050562886
-0.33745933
-0.06310481
-0.104459144
-0.19740324
-0.01110048
-0.1751399
-0.0060078446
0.0063824444
0.0026152981
0.6013887
0.07536409
0.21146506
0.15121576
0.1986965
0.01623711
0.2594277
-0.13792422
-0.051668044
-0.1208946
0.31990626
-0.00041264552
-0.09613303
-0.021607757
-0.11154853
0.27196664
-0.008908175
-0.2889187
0.056588124
-0.07299365
0.36068133
-0.1648717
-0.3097101
-0.06961705
-0.10629729
0.2605045
-0.16422486
-0.11520142
-0.03619088
-0.07255481
0.0864672
-0.011365621
-0.15134057
0.010896145
0.16157004
-0.14140677
0.082527705
-0.09802112
-0.029780548
0.080136165
-0.039548747
0.08785922
0.01939173
-0.05579515
-0.027958138
-0.14280103
-0.08790736
0.15659449
-0.20785612
-0.10543912
-0.20576173
-0.24709162
-0.0014017571
-0.18537465
-0.15920712
-0.215168
-0.36440203
-0.1391442
-0.1523523
-0.26661676
-0.17203939
-0.3434171
0.0658963
0.0806106
-0.06372558
0.34723678
0.054176193
0.062225487
0.123367794
-0.07269968
0.35735193
-0.033981632
-0.2746569
-0.080834866
-0.20047487
0.604118
-0.16965406
-0.2337113
-0.22405079
-0.27782264
0.4712061
-0.10835845
-0.4506594
-0.16454849
-0.35042924
0.29612815
-0.005629377
-0.50550723
-0.21149625
-0.3583972
-0.026770454
0.03798968
-0.4061832
-0.10484357
-0.16108908
0.09340822
0.1882871
-0.17187884
0.171793
-0.06327478
0.06708051
0.11377391
-0.19796282
-0.12776229
-0.15556704
-0.05875858
-0.10621495
0.111404955
-0.15579177
-0.059420515
-0.13118424
0.0032614933
0.007509758
-0.022122249
0.02355717
-0.19557369
-0.026588434
-0.017366543
-0.22566593
0.033906713
-0.3615375
-0.038951546
-0.089778684
-0.11498823
-0.26328462
-0.18100154
-0.2687989
-0.029253582
-0.0564113
-0.054923076
0.17563008
-0.15984033
-0.14725952
-0.20225824
-0.09197117
0.17777595
-0.15760991
-0.2518733
-0.3307481
0.13783798
-0.46219948
0.12000689
-0.28904995
-0.1119883
0.095456146
-0.4568244
0.3573396
-0.33274707
-0.0234299
0.13369918
-0.32215384
0.37624925
-0.13205968
0.005923376
-0.058838602
-0.19407451
0.23752613
-0.40397593
-0.06747969
-0.09365459
0.035099607
0.03397169
-0.27110335
-0.14940795
-0.24018896
0.23140125
-0.09751102
0.0043872003
-0.068089895
-0.109021254
0.0855525
0.10316788
0.20663092
-0.04202745
-0.061130367
-0.018528517
-0.034913775
0.3198981
-0.014155259
-0.031927176
-0.10905176
-0.14209434
0.27136225
0.031861145
0.1678394
-0.30900112
0.09698555
-0.18373531
-0.039712287
-0.020388138
-0.26439878
-0.17630777
-0.09284441
-0.20282133
-0.1425893
0.057022355
-0.17779262
0.12511931
0.037227046
-0.11214596
-0.102156274
-0.005711029
0.16852897
0.036373883
0.19528988
-0.68740803
0.13101079
0.13358697
0.17598644
0.13029735
-0.29935765
0.07832262
0.060281627
-6.179379e-05
-0.07604315
-0.08992337
0.124472104
0.016125994
-0.14236246
-0.13978122
-0.016329467
-0.07049928
-0.11387762
-0.108589426
-0.037650127
0.13704796
0.10394355
-0.20280033
-0.047785196
-0.17357022
0.032011665
0.15947556
0.0036987625
-0.06725892
0.037141517
-0.1183045
0.02497925
0.04813781
-0.022616522
0.056994375
-0.10581066
-0.02909572
0.29046103
0.01891554
0.0039458666
-0.284515
0.108368985
0.16502506
0.06597046
0.2288361
-0.52187216
0.22527659
-0.24213013
0.058188524
0.042563125
-0.20444039
0.017860193
-0.012034843
-0.056008916
0.017855672
-0.36517948
-0.0004077322
0.15624899
0.09801735
0.009789786
-0.6031446
0.17086802
0.008071951
-0.03532521
0.119023696
-0.34405085
0.0029390575
-0.038144957
-0.2024282
0.008731005
-0.26362503
-0.1079852
0.046367716
-0.16476524
-0.14969453
-0.5431725
0.048815403
0.04663482
-0.1262273
-0.11574583
-0.22489268
0.051838893
0.07708062
-0.035086896
0.119953975
0.105906546
0.14826226
-0.17434664
-0.009541465
0.006405921
-0.16840544
0.0594331
0.012678044
-0.042188615
-0.009579245
-0.07775289
0.20883548
-0.051914506
0.00019851215
0.045229312
-0.039077
0.14008631
-0.0058836816
-0.08026218
-0.034638148
-0.2863584
0.16057444
-0.1645174
0.22189343
-0.039262705
-0.19030029
0.07558537
-0.12705222
0.056333147
0.039854795
-0.3224729
-0.041892353
0.17016655
0.22668421
0.06097621
0.1389447
0.030523079
0.10185843
0.16225658
0.14831057
-0.1367795
0.0155354235
0.120150924
-0.0033138446
-0.029734265
-0.21438673
-0.038857114
0.10377906
-0.14785434
0.012208829
-0.23138525
0.114791356
0.04745717
-0.04897069
-0.18915237
-0.19485675
-0.03704131
0.14434084
-0.17809127
-0.14264597
-0.14860116
-0.03669201
-0.20885175
-0.062999934
0.060161613
-0.1432647
0.057498485
-0.15281275
0.024139224
-0.05038775
-0.11910807
0.1298652
-0.006854905
0.15939933
0.18161099
0.071562976
0.19226596
-0.09775338
0.1356306
0.055799995
0.07034222
0.13455784
-0.033832535
-0.013087236
-0.013589625
-0.0017208274
0.15830977
-0.34794945
0.0012101326
-0.13140081
0.20735016
-0.23242925
-0.12291338
-0.17924787
-0.10565583
0.14951658
0.09252403
0.109800346
0.14853758
0.10230222
0.20374326
0.11737878
0.10032477
0.12981123
-0.015221808
-0.14489464
0.0056833057
0.01897404
0.021757165
0.015567147
-0.12597893
-0.125167
0.06325197
0.03766645
-0.024079673
-0.12925564
-0.112518646
0.24317355
0.06832485
0.06347835
-0.079738356
-0.06641571
0.07613801
0.07001563
0.14334424
-0.054676723
-0.0033353502
-0.026615698
0.073765196
0.18907888
0.0019504648
-0.00998368
-0.020143306
0.14579299
0.2271596
0.036168173
0.12093633
0.022507295
0.18140289
0.23827235
0.07087775
0.07188292
-0.013401784
0.1273239
0.09571905
0.18859619
0.06607874
0.031395517
0.09638694
0.13885514
0.06793498
0.20108697
-0.22325598
-0.050081838
-0.014916049
0.20203733
-0.119801305
0.032895043
-0.12524925
-0.06813996
0.06015926
0.054642577
0.17026995
0.20492597
0.12055524
0.1539292
0.036004726
-0.009375124
0.0009011766
0.08371421
-0.04636272
0.029775232
0.060224395
-0.0016581089
-0.06759563
-0.109318405
-0.07332688
0.093182065
-0.010475255
-0.11714511
-0.016234124
0.07905503
0.12866317
0.08444908
-0.0054108524
-0.0710395
-0.09607136
0.094615124
0.16130623
0.021517236
0.049057733
-0.28380725
-0.065867126
0.010509018
0.04281155
0.03055599
-0.23189536
-0.049252503
0.033241082
0.02966677
0.07963913
0.0051670102
-0.22121662
0.025604986
0.09660437
0.1970611
0.11007641
-0.06849208
0.145844
0.17658995
0.13716853
0.08586824
-0.0018952413
0.023322668
0.019533312
0.06592073
0.07710852
-0.28353512
-0.03438181
0.02099102
0.08539134
-0.12774666
0.093539596
0.012757381
-0.010792944
0.50436074
-0.09822074
0.030879669
0.09970081
-0.028077945
0.40166095
0.055435553
0.008576137
-0.050067123
-0.064675905
0.19292556
-0.012988842
0.060400102
0.06858259
-0.020142233
0.10867161
-0.082315475
0.120705
0.08055542
0.12494001
0.2930363
0.036016542
0.17345144
0.06548476
0.14753108
0.20092154
-0.0807431
0.062063053
0.024110517
0.052002665
0.15748496
-0.12422513
-0.04231904
-0.0551086
0.032633737
0.14964263
-0.11381416
-0.11127005
0.030229706
0.0439611
0.14396517
-0.11024642
-0.16406812
-0.052110974
-0.044071935
0.08019104
-0.17191099
-0.09172596
0.040602677
-0.10175391
0.10380577
-0.21660802
0.11966378
0.058461957
0.004105682
0.06425525
-0.101318344
-0.16253571
-0.14288403
-0.01851863
-0.047599997
-0.088684276
0.020869074
-0.14315347
-0.029169556
-0.017281827
0.060344387
-0.07697932
0.033821244
-0.04780553
-0.015188711
0.0054948255
-0.14386348
-0.10229777
-0.01434963
-0.08129593
-0.100896366
-0.09486601
-0.19092415
-0.17060709
0.020339169
-0.112161756
-0.21029536
-0.19747564
-0.24561161
-0.044635493
-0.21255513
-0.4185523
-0.28074723
-0.39588276
0.10169288
-0.28863356
-0.24417426
-0.278687
-0.44149593
0.15973412
-0.36510617
-0.22508705
-0.3040923
-0.36355945
0.23528989
-0.15933642
-0.28215167
-0.29775056
-0.38707867
0.1232175
-0.24566598
-0.1809514
-0.2950093
-0.22044913
0.036162484
-0.1586973
-0.2742679
-0.28034797
-0.06642461
-0.19366054
-0.004671882
-0.054470375
-0.23316047
-0.04344487
0.08248556
0.008410964
-0.037447803
-0.022951392
-0.005995711
0.22430639
-0.08405382
0.030865751
-0.0036273305
-0.06167191
0.15683073
-0.08461243
0.23003665
0.1332889
0.14775033
0.03365721
0.22561161
0.18900609
0.24586602
0.10676492
-0.09260186
0.16869503
0.1602277
0.2510281
0.18410087
-0.08918083
0.27861097
0.24135697
0.090103626
0.18309778
-0.20000489
0.2051549
0.2063976
0.19691548
0.18475531
-0.003564074
0.22482872
0.23811142
0.04185079
0.1656554
-0.44474947
0.15418047
0.046948444
0.24144095
0.05914375
-0.10314956
-0.018331682
0.15636097
0.012327559
0.166038
-0.09493604
0.110141315
0.20313479
0.044372126
0.02716171
-0.33442423
0.07937705
0.107099295
0.119723186
0.19560175
-0.28498718
0.08882775
0.010878937
0.12985858
0.08614014
-0.17520101
0.01429443
0.1560866
0.09090098
0.102925435
0.075803325
0.08842686
0.25961974
0.12441353
0.04104947
0.09454178
0.18863714
0.12089959
0.21616627
0.19433548
-0.0862579
0.1383128
0.22144754
0.14530575
0.13995585
-0.0026697738
0.10117366
0.30612683
0.19974385
0.15677069
0.21035552
0.096598186
0.19601047
0.049815908
0.08145375
-0.16205718
0.21123107
0.021876797
-0.036954418
0.03566071
-0.18602796
0.05233318
-0.1659123
0.09802448
0.0016432207
-0.10418179
-0.038676374
-0.1193228
0.08796343
-0.025485042
0.00583816
-0.11440186
-0.013534798
0.0067073745
0.08143259
-0.05778857
0.0010427337
-0.05907836
0.13130488
0.12571394
-0.0022815366
0.13225909
-0.003686231
0.0029068436
0.13168205
0.19133905
0.14474255
-0.05179744
0.04384081
0.053810585
0.24132477
-0.030967152
0.13046224
-0.008204003
-0.08400747
-0.0907549
0.0056832917
0.16641594
0.19534509
0.19246012
-0.18185174
0.11629217
0.024045788
0.080230765
0.16625
-0.22951081
0.10915823
0.13668428
0.22169185
0.07322927
-0.25637504
0.026842523
0.06604356
0.19745958
0.13737294
-0.20852534
0.17154723
0.12126215
0.08096532
0.15674846
-0.18858483
0.18007569
-0.18182941
-0.032824382
0.07729567
-0.060013607
0.18532832
-0.020000871
0.027147109
0.067478605
0.019719293
0.1605809
0.013377775
-0.0133349085
-0.018955847
0.12010181
0.034886356
-0.12916164
0.06361853
0.0047409288
0.038182925
0.11294894
-0.045909833
0.0979586
-0.051421255
0.015602471
0.13769276
-0.038353562
0.13472897
0.046242863
0.103562824
0.2627797
0.006700121
0.22691056
0.028903434
0.30033723
0.15337302
0.001870583
0.038712356
0.118789904
0.20500189
0.19303666
0.2089608
0.22724995
0.31830162
0.096595615
0.31740066
-0.020267842
0.09569362
0.22757208
-0.10597373
0.097916536
0.23425987
0.1428261
0.09325771
-0.018740922
0.2035375
0.095147155
0.09110275
0.08896396
-0.20323804
0.16040345
0.1281141
0.010726443
0.058167584
-0.113448806
0.13133766
0.08118383
-0.015045808
0.100902684
-0.2513082
-0.022409476
0.09072347
-0.11554746
0.03963774
-0.0768499
0.09946032
-0.12623921
-0.09012443
-0.14412546
-0.020800406
-0.15200521
-0.043139756
-0.014129605
-0.16618195
0.28304783
0.027627854
-0.12580411
0.002522932
-0.08436585
0.15975484
-0.034509473
-0.10213405
0.0075928387
-0.064397484
0.14780119
0.10961678
-0.30625424
-0.021835197
-0.14112079
0.26449254
-0.031049164
0.09482868
0.035643145
0.042912535
0.37415546
0.17757678
0.32076195
0.19135873
0.25418973
0.20623913
0.4957172
0.046316545
0.049607854
0.08468468
-0.3298406
0.151462
-0.020923655
-0.054787558
-0.009827306
-0.05839148
0.17762879
0.17031789
-0.00080032815
-0.051640145
-0.1284884
-0.00048047391
0.20781867
-0.00057624787
0.08395064
-0.29472217
-0.040874816
0.10824811
0.0034071913
-0.004766775
-0.118279554
0.009377827
0.14119476
0.03663537
0.07864592
0.08361572
0.21266446
-0.013726037
-0.24819934
0.17346178
0.24349853
0.0756344
-0.11571561
-0.17068338
-0.083831534
0.16091621
0.04166819
-0.25635692
-0.10766162
-0.04721155
0.24065177
0.057432696
-0.27742806
0.025777778
-0.09128898
0.3484023
0.016739063
-0.1907712
-0.0096079
0.0894317
0.4107929
-0.04551413
0.26990238
0.15157732
0.054534566
0.26580715
0.12610282
0.4317666
0.4086697
0.40966675
0.40994844
0.24761446
-0.020868827
0.079110645
0.18241274
-0.2013148
0.10398484
0.029477075
0.04994721
-0.08158859
-0.0816307
-0.12248055
0.007108489
-0.092572734
-0.2343847
-0.14952001
-0.10169367
0.11084322
0.013325215
-0.1272747
-0.11845725
-0.11643202
0.19454296
-0.03767977
-0.013586577
-0.20556608
0.0912818
0.32267338
0.19624291
0.16658801
-0.28504792
0.0823763
0.39320317
0.0686834
0.31248918
0.0977529
0.0143938055
-0.1698435
-0.09468174
0.21073595
0.21724305
0.08365599
-0.33137178
-0.068467855
0.11677163
0.42369998
-0.06467386
-0.27998683
-0.102168396
-0.05654022
0.6632785
-0.20746933
-0.20345035
0.019080624
-0.14591715
0.771254
-0.10897491
0.025063714
0.012798432
-0.116348274
0.5502237
-0.010246919
0.21975933
0.16297565
0.100766055
0.4357415
-0.005844211
0.1169559
0.033650495
0.1735923
-0.13765737
0.11423283
-0.19094254
-0.11898336
-0.068833865
0.21138243
-0.2421133
-0.052805625
-0.14334263
-0.23405264
0.2949753
-0.1993556
0.09529634
-0.060023326
-0.29351255
-0.0016958229
-0.35349667
0.18530859
-0.023740862
-0.2569751
-0.1802943
-0.24834296
0.2160851
0.109229825
0.017565886
-0.07373847
-0.20896108
0.12466507
0.1755478
0.18054342
-0.119567536
-0.076230064
-0.08885057
-0.0055020596
-0.065332845
0.21140558
-0.13365197
-0.07238034
0.16359298
0.22052397
0.47170898
-0.0640099
0.14864334
0.08991242
0.07170846
0.37699094
-0.2680039
0.088845514
-0.039381865
0.21214965
0.29382405
-0.032407526
-0.0037690564
-0.036514614
0.048655834
-0.107658625
-0.15092024
0.03160365
-0.066782445
-0.2011049
-0.10700518
-0.03907875
0.118529014
0.117223814
0.12885572
-0.22472161
0.18033105
-0.044213235
0.04775278
0.063135065
0.18341726
-0.01000181
0.061805435
-0.08402881
0.0976387
0.26143232
-0.050960653
-0.035051826
0.0035040958
-0.05931012
0.13188353
-0.22873941
0.1216406
-0.16345318
-0.047272377
0.1216004
-0.22602029
0.22232799
0.124008045
0.012421731
0.086938016
-0.18443185
0.13147727
0.16472316
-0.07058538
0.03781791
-0.098746285
0.21030325
0.05063693
0.18619415
0.3524682
-0.08352433
0.3311055
0.28470767
0.24979854
0.45416623
-0.13853064
0.48574546
0.1657647
0.30608383
0.10598317
-0.27540857
0.506362
0.15933357
0.19046019
-0.08561213
-0.12930146
0.18877229
-0.05385098
0.17700222
-0.7521136
-0.09007172
0.067141026
0.0020350246
-0.04594164
-0.25019968
-0.19426693
-0.037632633
0.008013765
0.14662933
-0.20488311
0.015253885
0.16908047
0.20240484
-0.041633684
0.33822012
-0.009118065
0.113059476
-0.014220538
0.26977545
0.085614055
-0.079908
0.13113451
0.06332857
0.0688894
0.1698584
-0.08646703
0.14861439
-0.021919249
0.16511196
0.21073814
0.0021176308
0.17836712
0.14242908
0.098649144
0.15279518
0.034427594
0.26973426
0.07123616
0.03635886
0.07978629
-0.01268745
0.43363798
0.20298077
0.19353987
0.07662455
-0.03330105
0.40448844
0.25901243
0.42451805
0.25190383
-0.08992594
0.44943914
0.09856873
0.19834132
-0.21695371
-0.08245884
0.36230764
0.11649565
-0.0221456
-0.40375006
0.02627259
0.23925391
-0.08135382
-0.0018322386
-0.6365815
-0.1185137
-0.07553523
0.018576052
-0.17299831
-0.4553391
-0.18459621
-0.11423906
0.05124254
0.10701399
-0.23801537
0.07782823
0.0025062494
0.07237875
0.039599348
0.03627685
-0.012814741
-0.03195569
0.012888262
0.13005613
0.18077634
-0.13845563
0.06105074
0.00641168
0.012776821
0.13342461
-0.06335087
0.15216729
0.008223104
0.079814
0.06309449
-0.14369221
0.11137961
-0.0073093446
0.050258804
0.034087945
-0.117416985
0.28884137
-0.058692772
0.04867546
-0.0024076737
-0.096779145
0.10331855
0.13084638
0.05314726
0.10169894
0.049542934
0.15355687
0.06708688
0.109644644
0.015834581
0.08356761
-0.06712348
-0.057407536
-0.0013368168
-0.2638024
0.10725309
-0.094584025
-0.036424816
-0.04556367
-0.60217345
0.00083398423
-0.12894575
0.0074124862
0.005917283
-0.26483622
0.021259962
-0.047352534
-0.038742032
-0.13648415
-0.3906253
-0.01596264
0.14934537
0.031518824
0.17967536
-0.2574471
0.14883906
0.00059349934
0.0151760895
0.13278918
-0.11774245
0.15784428
0.09935817
0.020087024
-0.018753216
0.044258706
-0.14659335
-0.004078675
0.0310231
0.05229485
0.20133048
-0.11076875
0.027280591
0.070073314
0.1035773
0.12216288
-0.09418958
0.10257583
0.065878
0.085193865
0.2786943
-0.10615116
0.028644904
0.07708314
0.13533358
0.24789685
0.1256053
-0.08940228
0.14679897
0.093713984
0.09911584
0.19393201
-0.13910256
0.08400404
-0.12662427
-0.039726738
0.29427117
-0.38076812
-0.06674023
-0.18125221
-0.24420477
0.33193147
-0.25414237
-0.060448855
-0.12710206
-0.16082464
0.20851709
-0.31489486
-0.1317559
-0.08174065
-0.4929485
0.051340263
0.08660033
-0.11111756
-0.040598296
-0.45908412
0.10746913
0.16996422
0.18809666
0.1766568
0.03160805
0.2613006
0.078192785
0.10136433
0.18894218
-0.11959398
0.13893582
-0.12348046
0.041305352
0.16638179
0.025809426
-0.07094489
0.009571301
0.13229914
0.07421247
0.09224887
-0.06004119
0.04318576
0.079026334
0.26996604
0.078197256
0.016020512
0.020040942
0.054857157
0.22432745
0.22963461
0.008716144
-0.100448415
0.037785735
0.13685945
0.2980792
0.15572011
-0.26395106
0.17113955
0.058444284
0.05373395
0.23585762
-0.31813458
0.026212301
-0.031571813
-0.24185587
0.2691453
-0.24027923
-0.027127815
-0.20763347
-0.22931558
0.06628096
-0.15623012
-0.0749168
-0.14800581
-0.31363833
0.092879236
-0.067905344
-0.07886703
-0.0075502554
-0.49328828
0.19693619
0.1955613
0.04967463
0.08923782
-0.42182538
0.05791848
0.27460164
0.26172596
0.20830405
0.35185105
0.22686656
0.06971203
-0.02576507
0.10206454
-0.07141083
0.061682943
-0.05636082
-0.17304999
-0.091366
-0.035662476
-0.071092054
-0.019765431
-0.023103816
-0.17814603
0.054018788
-0.26641905
-0.098357186
-0.024341425
0.07438485
0.06737892
-0.24730374
-0.14538604
-0.0063918508
0.16757429
0.08921366
-0.27033156
-0.15763131
0.075679354
-0.06060524
0.12287306
-0.34394667
0.017216869
0.109392636
-0.110686
-0.037840433
0.012351233
-0.122969754
0.1629726
0.12365229
-0.1968121
0.20909983
0.0068661766
0.13345774
0.11884321
-0.10938379
0.096721455
0.07951722
0.10766791
0.11471209
0.04184537
0.135083
0.16928297
0.1738991
0.1698663
0.06578613
0.20133229
0.1495959
0.11099152
0.2683782
-0.09023597
0.16466102
0.21054934
0.21218055
0.109277
0.13054962
0.07571846
0.102113105
0.17145696
0.088244975
0.07329048
0.21971019
0.18396407
0.12091629
0.1243234
0.075106464
0.062525064
0.08315269
0.1265322
0.07956465
0.09011702
0.11381443
0.077214725
0.12437035
0.10286431
0.092719905
0.19444595
-0.005616745
0.062287282
-0.030410968
0.2215341
-0.06402056
-0.100308746
-0.09434743
0.079608284
-0.005440049
0.07735971
-0.21347032
-0.022396915
-0.12438895
0.5047265
0.022205697
0.022600869
-0.08296179
-0.14890052
0.5456432
0.036107603
0.054319415
0.11079087
-0.052214853
0.38181037
0.015916267
0.10319315
0.06907284
0.057092693
0.20971173
0.13387106
0.23292042
0.19655403
0.08590003
0.10132132
0.103508
0.14811842
0.22934122
0.17358539
0.15569739
0.15087791
0.15328406
0.1300897
0.14719957
0.013238915
0.09348506
0.044705052
0.19715293
0.24894562
-0.046918903
0.18927115
0.0392498
